<?xml version="1.0"?>
<opencv_storage>
<cascade>
  <stageType>BOOST</stageType>
  <featureType>HAAR</featureType>
  <height>24</height>
  <width>24</width>
  <stageParams>
    <boostType>GAB</boostType>
    <minHitRate>9.9500000476837158e-01</minHitRate>
    <maxFalseAlarm>5.0000000000000000e-01</maxFalseAlarm>
    <weightTrimRate>9.4999998807907104e-01</weightTrimRate>
    <maxDepth>1</maxDepth>
    <maxWeakCount>100</maxWeakCount></stageParams>
  <featureParams>
    <maxCatCount>0</maxCatCount>
    <featSize>1</featSize>
    <mode>BASIC</mode></featureParams>
  <stageNum>20</stageNum>
  <stages>
    <!-- stage 0 -->
    <_>
      <maxWeakCount>4</maxWeakCount>
      <stageThreshold>-1.2754082679748535e+00</stageThreshold>
      <weakClassifiers>
        <_>
          <internalNodes>
            0 -1 16 -2.5588017888367176e-03</internalNodes>
          <leafValues>
            -7.6717472076416016e-01 7.8986400365829468e-01</leafValues></_>
        <_>
          <internalNodes>
            0 -1 914 -5.8869249187409878e-04</internalNodes>
          <leafValues>
            -6.2090367078781128e-01 8.0611491203308105e-01</leafValues></_>
        <_>
          <internalNodes>
            0 -1 864 -8.8131462689489126e-04</internalNodes>
          <leafValues>
            -4.7599652409553528e-01 6.2741923332214355e-01</leafValues></_>
        <_>
          <internalNodes>
            0 -1 908 -2.9326323419809341e-04</internalNodes>
          <leafValues>
            -3.5885629057884216e-01 5.8866661787033081e-01</leafValues></_></weakClassifiers></_>
    <!-- stage 1 -->
    <_>
      <maxWeakCount>8</maxWeakCount>
      <stageThreshold>-1.7887238264083862e+00</stageThreshold>
      <weakClassifiers>
        <_>
          <internalNodes>
            0 -1 20 3.2220864668488503e-03</internalNodes>
          <leafValues>
            -6.6756165027618408e-01 4.1267064213752747e-01</leafValues></_>
        <_>
          <internalNodes>
            0 -1 942 -5.9241749113425612e-05</internalNodes>
          <leafValues>
            -4.8427397012710571e-01 3.3888399600982666e-01</leafValues></_>
        <_>
          <internalNodes>
            0 -1 604 -2.0170845091342926e-02</internalNodes>
          <leafValues>
            6.4289712905883789e-01 -2.4412600696086884e-01</leafValues></_>
        <_>
          <internalNodes>
            0 -1 482 7.3018781840801239e-02</internalNodes>
          <leafValues>
            -2.4477446079254150e-01 8.1608551740646362e-01</leafValues></_>
        <_>
          <internalNodes>
            0 -1 75 4.3644833564758301e-01</internalNodes>
          <leafValues>
            1.8838535249233246e-01 -8.6034959554672241e-01</leafValues></_>
        <_>
          <internalNodes>
            0 -1 82 -4.4206100702285767e-01</internalNodes>
          <leafValues>
            -7.2602283954620361e-01 1.6892582178115845e-01</leafValues></_>
        <_>
          <internalNodes>
            0 -1 188 1.1633289432211313e-05</internalNodes>
          <leafValues>
            -3.3971178531646729e-01 2.9720535874366760e-01</leafValues></_>
        <_>
          <internalNodes>
            0 -1 806 -3.7819147109985352e-02</internalNodes>
          <leafValues>
            6.1836147308349609e-01 -1.7771215736865997e-01</leafValues></_></weakClassifiers></_>
    <!-- stage 2 -->
    <_>
      <maxWeakCount>18</maxWeakCount>
      <stageThreshold>-1.4918615818023682e+00</stageThreshold>
      <weakClassifiers>
        <_>
          <internalNodes>
            0 -1 113 -4.1963118128478527e-03</internalNodes>
          <leafValues>
            2.1294809877872467e-01 -7.3134326934814453e-01</leafValues></_>
        <_>
          <internalNodes>
            0 -1 254 -8.5645169019699097e-02</internalNodes>
          <leafValues>
            4.1530832648277283e-01 -2.7747675776481628e-01</leafValues></_>
        <_>
          <internalNodes>
            0 -1 388 6.3853442668914795e-02</internalNodes>
          <leafValues>
            -1.4245255291461945e-01 6.9291019439697266e-01</leafValues></_>
        <_>
          <internalNodes>
            0 -1 816 2.6418984634801745e-04</internalNodes>
          <leafValues>
            2.0668603479862213e-01 -4.2828670144081116e-01</leafValues></_>
        <_>
          <internalNodes>
            0 -1 4 2.9336570878513157e-04</internalNodes>
          <leafValues>
            2.2122913599014282e-01 -3.8438227772712708e-01</leafValues></_>
        <_>
          <internalNodes>
            0 -1 37 -1.6118384897708893e-02</internalNodes>
          <leafValues>
            3.5843563079833984e-01 -2.0447090268135071e-01</leafValues></_>
        <_>
          <internalNodes>
            0 -1 688 1.0144577827304602e-03</internalNodes>
          <leafValues>
            1.3120642304420471e-01 -5.3348165750503540e-01</leafValues></_>
        <_>
          <internalNodes>
            0 -1 687 -6.9707562215626240e-04</internalNodes>
          <leafValues>
            -4.6340042352676392e-01 1.4197674393653870e-01</leafValues></_>
        <_>
          <internalNodes>
            0 -1 527 -3.7366408109664917e-01</internalNodes>
          <leafValues>
            -7.3551541566848755e-01 8.6006276309490204e-02</leafValues></_>
        <_>
          <internalNodes>
            0 -1 616 8.2853494677692652e-04</internalNodes>
          <leafValues>
            1.7678394913673401e-01 -4.1509574651718140e-01</leafValues></_>
        <_>
          <internalNodes>
            0 -1 138 2.2762369364500046e-02</internalNodes>
          <leafValues>
            -1.9967298209667206e-01 4.6395277976989746e-01</leafValues></_>
        <_>
          <internalNodes>
            0 -1 729 1.3683047145605087e-02</internalNodes>
          <leafValues>
            -1.7383085191249847e-01 3.7128233909606934e-01</leafValues></_>
        <_>
          <internalNodes>
            0 -1 187 3.6549955606460571e-01</internalNodes>
          <leafValues>
            -1.1805897206068039e-01 6.6203665733337402e-01</leafValues></_>
        <_>
          <internalNodes>
            0 -1 4 -2.7223900542594492e-04</internalNodes>
          <leafValues>
            -3.2831808924674988e-01 2.1643029153347015e-01</leafValues></_>
        <_>
          <internalNodes>
            0 -1 457 2.2711213387083262e-04</internalNodes>
          <leafValues>
            1.4588171243667603e-01 -4.3724089860916138e-01</leafValues></_>
        <_>
          <internalNodes>
            0 -1 457 -3.5001314245164394e-04</internalNodes>
          <leafValues>
            -4.7941321134567261e-01 1.3283401727676392e-01</leafValues></_>
        <_>
          <internalNodes>
            0 -1 946 1.2686565241892822e-05</internalNodes>
          <leafValues>
            -2.7156668901443481e-01 2.5073358416557312e-01</leafValues></_>
        <_>
          <internalNodes>
            0 -1 514 4.7349460422992706e-02</internalNodes>
          <leafValues>
            -1.2783581018447876e-01 6.3188040256500244e-01</leafValues></_></weakClassifiers></_>
    <!-- stage 3 -->
    <_>
      <maxWeakCount>22</maxWeakCount>
      <stageThreshold>-1.4703181982040405e+00</stageThreshold>
      <weakClassifiers>
        <_>
          <internalNodes>
            0 -1 765 8.2226740196347237e-03</internalNodes>
          <leafValues>
            -4.2047053575515747e-01 2.7006563544273376e-01</leafValues></_>
        <_>
          <internalNodes>
            0 -1 541 -5.7479261886328459e-04</internalNodes>
          <leafValues>
            1.7564564943313599e-01 -4.5057395100593567e-01</leafValues></_>
        <_>
          <internalNodes>
            0 -1 80 -5.9086072444915771e-01</internalNodes>
          <leafValues>
            -8.0195182561874390e-01 1.0334537178277969e-01</leafValues></_>
        <_>
          <internalNodes>
            0 -1 181 7.6937779784202576e-02</internalNodes>
          <leafValues>
            -1.8395331501960754e-01 5.1209044456481934e-01</leafValues></_>
        <_>
          <internalNodes>
            0 -1 154 -3.0202412977814674e-02</internalNodes>
          <leafValues>
            4.6938839554786682e-01 -1.8203918635845184e-01</leafValues></_>
        <_>
          <internalNodes>
            0 -1 193 1.8809910118579865e-01</internalNodes>
          <leafValues>
            -1.1115307360887527e-01 6.8319147825241089e-01</leafValues></_>
        <_>
          <internalNodes>
            0 -1 672 1.3290356844663620e-02</internalNodes>
          <leafValues>
            -1.7681679129600525e-01 4.0039846301078796e-01</leafValues></_>
        <_>
          <internalNodes>
            0 -1 888 -1.1040195204259362e-05</internalNodes>
          <leafValues>
            2.8067794442176819e-01 -2.4695876240730286e-01</leafValues></_>
        <_>
          <internalNodes>
            0 -1 489 -5.8925297111272812e-02</internalNodes>
          <leafValues>
            4.0946084260940552e-01 -1.5074402093887329e-01</leafValues></_>
        <_>
          <internalNodes>
            0 -1 347 1.1122719198465347e-01</internalNodes>
          <leafValues>
            -1.2607774138450623e-01 4.8414754867553711e-01</leafValues></_>
        <_>
          <internalNodes>
            0 -1 260 -1.2405120287439786e-05</internalNodes>
          <leafValues>
            2.1688710153102875e-01 -2.7036201953887939e-01</leafValues></_>
        <_>
          <internalNodes>
            0 -1 732 2.3456070572137833e-02</internalNodes>
          <leafValues>
            -9.7561538219451904e-02 5.9145087003707886e-01</leafValues></_>
        <_>
          <internalNodes>
            0 -1 427 -1.5510167577303946e-04</internalNodes>
          <leafValues>
            -3.9647737145423889e-01 1.5031296014785767e-01</leafValues></_>
        <_>
          <internalNodes>
            0 -1 718 -9.3163698911666870e-03</internalNodes>
          <leafValues>
            3.6013960838317871e-01 -1.7110297083854675e-01</leafValues></_>
        <_>
          <internalNodes>
            0 -1 119 8.3607435226440430e-04</internalNodes>
          <leafValues>
            1.5007278323173523e-01 -3.5684242844581604e-01</leafValues></_>
        <_>
          <internalNodes>
            0 -1 912 8.1813617725856602e-05</internalNodes>
          <leafValues>
            1.9511008262634277e-01 -2.6078677177429199e-01</leafValues></_>
        <_>
          <internalNodes>
            0 -1 130 2.5462009012699127e-02</internalNodes>
          <leafValues>
            -8.0382809042930603e-02 5.9163993597030640e-01</leafValues></_>
        <_>
          <internalNodes>
            0 -1 875 3.7117169704288244e-03</internalNodes>
          <leafValues>
            -1.6639105975627899e-01 2.7846920490264893e-01</leafValues></_>
        <_>
          <internalNodes>
            0 -1 59 1.8909735605120659e-02</internalNodes>
          <leafValues>
            -9.5996938645839691e-02 5.3784859180450439e-01</leafValues></_>
        <_>
          <internalNodes>
            0 -1 84 -1.1333010661473963e-05</internalNodes>
          <leafValues>
            2.4257615208625793e-01 -2.1621254086494446e-01</leafValues></_>
        <_>
          <internalNodes>
            0 -1 4 2.3432762827724218e-04</internalNodes>
          <leafValues>
            1.4811734855175018e-01 -3.3706277608871460e-01</leafValues></_>
        <_>
          <internalNodes>
            0 -1 798 -1.2209727174194995e-05</internalNodes>
          <leafValues>
            2.0466291904449463e-01 -2.3705664277076721e-01</leafValues></_></weakClassifiers></_>
    <!-- stage 4 -->
    <_>
      <maxWeakCount>30</maxWeakCount>
      <stageThreshold>-1.5784596204757690e+00</stageThreshold>
      <weakClassifiers>
        <_>
          <internalNodes>
            0 -1 108 -5.8639418333768845e-02</internalNodes>
          <leafValues>
            5.2820511162281036e-02 -5.7694828510284424e-01</leafValues></_>
        <_>
          <internalNodes>
            0 -1 728 1.3431679457426071e-02</internalNodes>
          <leafValues>
            -2.5077608227729797e-01 3.6069175601005554e-01</leafValues></_>
        <_>
          <internalNodes>
            0 -1 653 -4.9774657236412168e-04</internalNodes>
          <leafValues>
            -3.9682486653327942e-01 1.6089199483394623e-01</leafValues></_>
        <_>
          <internalNodes>
            0 -1 575 1.2201133649796247e-03</internalNodes>
          <leafValues>
            1.3888864219188690e-01 -4.8900476098060608e-01</leafValues></_>
        <_>
          <internalNodes>
            0 -1 446 4.7652246430516243e-03</internalNodes>
          <leafValues>
            -1.4554890990257263e-01 4.1597530245780945e-01</leafValues></_>
        <_>
          <internalNodes>
            0 -1 199 2.2809278964996338e-01</internalNodes>
          <leafValues>
            -7.2139590978622437e-02 7.2318458557128906e-01</leafValues></_>
        <_>
          <internalNodes>
            0 -1 418 -3.6167517304420471e-02</internalNodes>
          <leafValues>
            3.4231489896774292e-01 -2.0085303485393524e-01</leafValues></_>
        <_>
          <internalNodes>
            0 -1 949 1.2402874745021109e-05</internalNodes>
          <leafValues>
            -2.7090737223625183e-01 2.4930010735988617e-01</leafValues></_>
        <_>
          <internalNodes>
            0 -1 524 3.1329551711678505e-03</internalNodes>
          <leafValues>
            -1.4894466102123260e-01 4.0437245368957520e-01</leafValues></_>
        <_>
          <internalNodes>
            0 -1 472 1.1690556071698666e-02</internalNodes>
          <leafValues>
            -1.5232984721660614e-01 3.9772617816925049e-01</leafValues></_>
        <_>
          <internalNodes>
            0 -1 401 -4.7080326825380325e-02</internalNodes>
          <leafValues>
            4.6677339076995850e-01 -1.3820415735244751e-01</leafValues></_>
        <_>
          <internalNodes>
            0 -1 10 1.6585149569436908e-04</internalNodes>
          <leafValues>
            1.5543624758720398e-01 -3.4644991159439087e-01</leafValues></_>
        <_>
          <internalNodes>
            0 -1 872 7.7723199501633644e-03</internalNodes>
          <leafValues>
            -9.6625179052352905e-02 4.6057519316673279e-01</leafValues></_>
        <_>
          <internalNodes>
            0 -1 660 3.3341062953695655e-04</internalNodes>
          <leafValues>
            1.3898606598377228e-01 -3.8232654333114624e-01</leafValues></_>
        <_>
          <internalNodes>
            0 -1 294 1.2026104741380550e-05</internalNodes>
          <leafValues>
            -2.7819716930389404e-01 1.9099028408527374e-01</leafValues></_>
        <_>
          <internalNodes>
            0 -1 574 3.5700836451724172e-04</internalNodes>
          <leafValues>
            1.3042488694190979e-01 -3.8103690743446350e-01</leafValues></_>
        <_>
          <internalNodes>
            0 -1 674 1.8746765330433846e-02</internalNodes>
          <leafValues>
            -1.1973978579044342e-01 4.7067636251449585e-01</leafValues></_>
        <_>
          <internalNodes>
            0 -1 121 -9.7367446869611740e-03</internalNodes>
          <leafValues>
            2.4388752877712250e-01 -2.0039130747318268e-01</leafValues></_>
        <_>
          <internalNodes>
            0 -1 469 2.2078130394220352e-02</internalNodes>
          <leafValues>
            -1.2762024998664856e-01 3.8996633887290955e-01</leafValues></_>
        <_>
          <internalNodes>
            0 -1 298 1.1793384328484535e-02</internalNodes>
          <leafValues>
            -1.5409432351589203e-01 3.7341842055320740e-01</leafValues></_>
        <_>
          <internalNodes>
            0 -1 455 2.3767813108861446e-03</internalNodes>
          <leafValues>
            1.1871860921382904e-01 -4.9094471335411072e-01</leafValues></_>
        <_>
          <internalNodes>
            0 -1 874 -7.9590547829866409e-03</internalNodes>
          <leafValues>
            5.4770851135253906e-01 -9.8564334213733673e-02</leafValues></_>
        <_>
          <internalNodes>
            0 -1 542 3.9466208545491099e-04</internalNodes>
          <leafValues>
            1.4910426735877991e-01 -3.3630827069282532e-01</leafValues></_>
        <_>
          <internalNodes>
            0 -1 262 -5.7776561006903648e-03</internalNodes>
          <leafValues>
            3.5287186503410339e-01 -1.2613749504089355e-01</leafValues></_>
        <_>
          <internalNodes>
            0 -1 54 3.2454064488410950e-01</internalNodes>
          <leafValues>
            -7.6137021183967590e-02 6.9393688440322876e-01</leafValues></_>
        <_>
          <internalNodes>
            0 -1 861 -1.0564880540187005e-05</internalNodes>
          <leafValues>
            2.3034934699535370e-01 -2.0384721457958221e-01</leafValues></_>
        <_>
          <internalNodes>
            0 -1 215 -1.1082321725552902e-04</internalNodes>
          <leafValues>
            -2.8141510486602783e-01 1.5985839068889618e-01</leafValues></_>
        <_>
          <internalNodes>
            0 -1 813 -1.8970966339111328e-03</internalNodes>
          <leafValues>
            1.8523196876049042e-01 -2.1597313880920410e-01</leafValues></_>
        <_>
          <internalNodes>
            0 -1 715 -2.1878827828913927e-03</internalNodes>
          <leafValues>
            -4.8828175663948059e-01 9.9977031350135803e-02</leafValues></_>
        <_>
          <internalNodes>
            0 -1 881 1.5266216360032558e-04</internalNodes>
          <leafValues>
            1.4659264683723450e-01 -3.1007516384124756e-01</leafValues></_></weakClassifiers></_>
    <!-- stage 5 -->
    <_>
      <maxWeakCount>14</maxWeakCount>
      <stageThreshold>-1.2905162572860718e+00</stageThreshold>
      <weakClassifiers>
        <_>
          <internalNodes>
            0 -1 24 -3.2002925872802734e-02</internalNodes>
          <leafValues>
            2.9291203618049622e-01 -4.8612314462661743e-01</leafValues></_>
        <_>
          <internalNodes>
            0 -1 389 2.4456683604512364e-05</internalNodes>
          <leafValues>
            -3.5568362474441528e-01 3.1155937910079956e-01</leafValues></_>
        <_>
          <internalNodes>
            0 -1 30 -4.8252183198928833e-01</internalNodes>
          <leafValues>
            -8.4884381294250488e-01 1.2815301120281219e-01</leafValues></_>
        <_>
          <internalNodes>
            0 -1 22 1.9486231030896306e-03</internalNodes>
          <leafValues>
            -3.4426015615463257e-01 3.1374359130859375e-01</leafValues></_>
        <_>
          <internalNodes>
            0 -1 662 -1.2260437011718750e-02</internalNodes>
          <leafValues>
            4.5293977856636047e-01 -2.1687582135200500e-01</leafValues></_>
        <_>
          <internalNodes>
            0 -1 781 1.4035960659384727e-02</internalNodes>
          <leafValues>
            -1.8548373878002167e-01 5.1163929700851440e-01</leafValues></_>
        <_>
          <internalNodes>
            0 -1 762 9.4927772879600525e-03</internalNodes>
          <leafValues>
            -1.3094189763069153e-01 5.1812040805816650e-01</leafValues></_>
        <_>
          <internalNodes>
            0 -1 701 3.7474617362022400e-02</internalNodes>
          <leafValues>
            -1.0790479183197021e-01 6.9046121835708618e-01</leafValues></_>
        <_>
          <internalNodes>
            0 -1 860 -3.1503133941441774e-03</internalNodes>
          <leafValues>
            3.4654736518859863e-01 -2.2541117668151855e-01</leafValues></_>
        <_>
          <internalNodes>
            0 -1 217 -3.5255804657936096e-02</internalNodes>
          <leafValues>
            4.0098136663436890e-01 -1.4732894301414490e-01</leafValues></_>
        <_>
          <internalNodes>
            0 -1 349 5.4030727595090866e-02</internalNodes>
          <leafValues>
            -1.6921633481979370e-01 4.4468149542808533e-01</leafValues></_>
        <_>
          <internalNodes>
            0 -1 802 -9.2166876420378685e-03</internalNodes>
          <leafValues>
            3.7429702281951904e-01 -1.8006697297096252e-01</leafValues></_>
        <_>
          <internalNodes>
            0 -1 153 -6.4164167270064354e-03</internalNodes>
          <leafValues>
            4.6253371238708496e-01 -1.2719511985778809e-01</leafValues></_>
        <_>
          <internalNodes>
            0 -1 370 -1.2501988094300032e-03</internalNodes>
          <leafValues>
            -6.1561983823776245e-01 9.8787814378738403e-02</leafValues></_></weakClassifiers></_>
    <!-- stage 6 -->
    <_>
      <maxWeakCount>29</maxWeakCount>
      <stageThreshold>-1.4929270744323730e+00</stageThreshold>
      <weakClassifiers>
        <_>
          <internalNodes>
            0 -1 289 2.5702803395688534e-03</internalNodes>
          <leafValues>
            -3.9044609665870667e-01 2.2351695597171783e-01</leafValues></_>
        <_>
          <internalNodes>
            0 -1 165 -1.0919123888015747e-02</internalNodes>
          <leafValues>
            4.3685686588287354e-01 -1.8675126135349274e-01</leafValues></_>
        <_>
          <internalNodes>
            0 -1 895 1.6081060748547316e-03</internalNodes>
          <leafValues>
            -2.6826053857803345e-01 3.2136440277099609e-01</leafValues></_>
        <_>
          <internalNodes>
            0 -1 845 -1.0564880540187005e-05</internalNodes>
          <leafValues>
            2.5711265206336975e-01 -2.2960948944091797e-01</leafValues></_>
        <_>
          <internalNodes>
            0 -1 357 1.1196076869964600e-02</internalNodes>
          <leafValues>
            -2.0826040208339691e-01 2.5653636455535889e-01</leafValues></_>
        <_>
          <internalNodes>
            0 -1 325 -1.5238046180456877e-03</internalNodes>
          <leafValues>
            -5.5951428413391113e-01 1.2861835956573486e-01</leafValues></_>
        <_>
          <internalNodes>
            0 -1 919 -7.2630932554602623e-03</internalNodes>
          <leafValues>
            5.2384734153747559e-01 -1.2025260925292969e-01</leafValues></_>
        <_>
          <internalNodes>
            0 -1 44 -7.7247148146852851e-04</internalNodes>
          <leafValues>
            2.2843137383460999e-01 -2.1778418123722076e-01</leafValues></_>
        <_>
          <internalNodes>
            0 -1 324 4.1589824832044542e-04</internalNodes>
          <leafValues>
            1.3058234751224518e-01 -4.0750953555107117e-01</leafValues></_>
        <_>
          <internalNodes>
            0 -1 573 -7.3713706806302071e-03</internalNodes>
          <leafValues>
            1.9674105942249298e-01 -2.3084852099418640e-01</leafValues></_>
        <_>
          <internalNodes>
            0 -1 417 -2.6837434619665146e-02</internalNodes>
          <leafValues>
            3.0767384171485901e-01 -1.7267636954784393e-01</leafValues></_>
        <_>
          <internalNodes>
            0 -1 293 2.3702239990234375e-01</internalNodes>
          <leafValues>
            -9.7161404788494110e-02 4.9950107932090759e-01</leafValues></_>
        <_>
          <internalNodes>
            0 -1 740 9.6586123108863831e-03</internalNodes>
          <leafValues>
            -9.4780743122100830e-02 4.7060999274253845e-01</leafValues></_>
        <_>
          <internalNodes>
            0 -1 719 6.0578552074730396e-04</internalNodes>
          <leafValues>
            1.2444557249546051e-01 -3.8661873340606689e-01</leafValues></_>
        <_>
          <internalNodes>
            0 -1 491 4.9793482758104801e-03</internalNodes>
          <leafValues>
            -1.3568037748336792e-01 3.8604789972305298e-01</leafValues></_>
        <_>
          <internalNodes>
            0 -1 173 -1.1375939720892347e-05</internalNodes>
          <leafValues>
            2.0217525959014893e-01 -2.3058260977268219e-01</leafValues></_>
        <_>
          <internalNodes>
            0 -1 841 -2.7950718067586422e-03</internalNodes>
          <leafValues>
            3.2235568761825562e-01 -1.4791774749755859e-01</leafValues></_>
        <_>
          <internalNodes>
            0 -1 618 1.6759667778387666e-03</internalNodes>
          <leafValues>
            6.9316238164901733e-02 -6.5696740150451660e-01</leafValues></_>
        <_>
          <internalNodes>
            0 -1 838 8.7944073602557182e-03</internalNodes>
          <leafValues>
            -1.1740736663341522e-01 4.3287342786788940e-01</leafValues></_>
        <_>
          <internalNodes>
            0 -1 549 5.8770994655787945e-04</internalNodes>
          <leafValues>
            1.1696380376815796e-01 -4.1148084402084351e-01</leafValues></_>
        <_>
          <internalNodes>
            0 -1 127 1.0952585376799107e-02</internalNodes>
          <leafValues>
            -7.9134650528430939e-02 6.2069815397262573e-01</leafValues></_>
        <_>
          <internalNodes>
            0 -1 120 -1.1238355189561844e-02</internalNodes>
          <leafValues>
            3.9244118332862854e-01 -1.1917173117399216e-01</leafValues></_>
        <_>
          <internalNodes>
            0 -1 549 -1.2637444306164980e-03</internalNodes>
          <leafValues>
            -5.5331778526306152e-01 9.0907961130142212e-02</leafValues></_>
        <_>
          <internalNodes>
            0 -1 333 3.3054519444704056e-02</internalNodes>
          <leafValues>
            -1.3912932574748993e-01 3.5848560929298401e-01</leafValues></_>
        <_>
          <internalNodes>
            0 -1 95 2.6354921981692314e-02</internalNodes>
          <leafValues>
            -1.2942324578762054e-01 3.4278401732444763e-01</leafValues></_>
        <_>
          <internalNodes>
            0 -1 402 -2.8283197432756424e-02</internalNodes>
          <leafValues>
            5.1168704032897949e-01 -8.5549488663673401e-02</leafValues></_>
        <_>
          <internalNodes>
            0 -1 884 2.1780258975923061e-04</internalNodes>
          <leafValues>
            1.4607365429401398e-01 -3.3159902691841125e-01</leafValues></_>
        <_>
          <internalNodes>
            0 -1 52 2.0876948256045580e-03</internalNodes>
          <leafValues>
            -2.5480014085769653e-01 1.9948123395442963e-01</leafValues></_>
        <_>
          <internalNodes>
            0 -1 679 2.7129980735480785e-03</internalNodes>
          <leafValues>
            -1.2274013459682465e-01 3.3942845463752747e-01</leafValues></_></weakClassifiers></_>
    <!-- stage 7 -->
    <_>
      <maxWeakCount>33</maxWeakCount>
      <stageThreshold>-1.3847527503967285e+00</stageThreshold>
      <weakClassifiers>
        <_>
          <internalNodes>
            0 -1 646 1.7452765256166458e-02</internalNodes>
          <leafValues>
            -3.9627179503440857e-01 2.1424935758113861e-01</leafValues></_>
        <_>
          <internalNodes>
            0 -1 200 4.1449403762817383e-01</internalNodes>
          <leafValues>
            -1.2342059612274170e-01 5.8351278305053711e-01</leafValues></_>
        <_>
          <internalNodes>
            0 -1 348 -1.1631697416305542e-01</internalNodes>
          <leafValues>
            3.4631106257438660e-01 -3.0052894353866577e-01</leafValues></_>
        <_>
          <internalNodes>
            0 -1 903 -2.3606914328411222e-04</internalNodes>
          <leafValues>
            -4.1077360510826111e-01 1.5252687036991119e-01</leafValues></_>
        <_>
          <internalNodes>
            0 -1 603 -5.9915576130151749e-03</internalNodes>
          <leafValues>
            4.2556428909301758e-01 -1.0154866427183151e-01</leafValues></_>
        <_>
          <internalNodes>
            0 -1 641 5.6462856009602547e-03</internalNodes>
          <leafValues>
            -1.3284003734588623e-01 4.9608999490737915e-01</leafValues></_>
        <_>
          <internalNodes>
            0 -1 167 -3.9416931569576263e-02</internalNodes>
          <leafValues>
            5.8525091409683228e-01 -1.1333940178155899e-01</leafValues></_>
        <_>
          <internalNodes>
            0 -1 237 -1.9236716907471418e-03</internalNodes>
          <leafValues>
            -6.1197918653488159e-01 1.1245127022266388e-01</leafValues></_>
        <_>
          <internalNodes>
            0 -1 102 -1.1035086214542389e-01</internalNodes>
          <leafValues>
            -6.6784191131591797e-01 5.9489589184522629e-02</leafValues></_>
        <_>
          <internalNodes>
            0 -1 201 2.7116328477859497e-01</internalNodes>
          <leafValues>
            -1.5300062298774719e-01 3.3794808387756348e-01</leafValues></_>
        <_>
          <internalNodes>
            0 -1 210 -3.0293801799416542e-02</internalNodes>
          <leafValues>
            5.1948004961013794e-01 -9.9994316697120667e-02</leafValues></_>
        <_>
          <internalNodes>
            0 -1 624 2.0079617388546467e-03</internalNodes>
          <leafValues>
            6.9554790854454041e-02 -5.8475315570831299e-01</leafValues></_>
        <_>
          <internalNodes>
            0 -1 622 -1.2945508351549506e-03</internalNodes>
          <leafValues>
            -6.0890489816665649e-01 7.1940325200557709e-02</leafValues></_>
        <_>
          <internalNodes>
            0 -1 267 -2.3857443011365831e-05</internalNodes>
          <leafValues>
            2.0418077707290649e-01 -1.9918449223041534e-01</leafValues></_>
        <_>
          <internalNodes>
            0 -1 291 4.2022321373224258e-02</internalNodes>
          <leafValues>
            -1.3206690549850464e-01 3.5195660591125488e-01</leafValues></_>
        <_>
          <internalNodes>
            0 -1 403 -4.0940418839454651e-02</internalNodes>
          <leafValues>
            5.3629302978515625e-01 -9.1281019151210785e-02</leafValues></_>
        <_>
          <internalNodes>
            0 -1 565 -3.1289178878068924e-03</internalNodes>
          <leafValues>
            3.3049750328063965e-01 -1.1007021367549896e-01</leafValues></_>
        <_>
          <internalNodes>
            0 -1 101 4.3948860839009285e-03</internalNodes>
          <leafValues>
            -9.8047316074371338e-02 3.5753554105758667e-01</leafValues></_>
        <_>
          <internalNodes>
            0 -1 284 -2.3916719947010279e-03</internalNodes>
          <leafValues>
            -5.3188341856002808e-01 6.5287262201309204e-02</leafValues></_>
        <_>
          <internalNodes>
            0 -1 787 -1.1346057057380676e-02</internalNodes>
          <leafValues>
            4.4385033845901489e-01 -8.1706538796424866e-02</leafValues></_>
        <_>
          <internalNodes>
            0 -1 582 1.1747453827410936e-03</internalNodes>
          <leafValues>
            7.7738903462886810e-02 -4.4978550076484680e-01</leafValues></_>
        <_>
          <internalNodes>
            0 -1 946 2.4965189368231222e-05</internalNodes>
          <leafValues>
            -2.2152067720890045e-01 1.6448479890823364e-01</leafValues></_>
        <_>
          <internalNodes>
            0 -1 772 -8.2728307461366057e-04</internalNodes>
          <leafValues>
            1.9692933559417725e-01 -1.8446126580238342e-01</leafValues></_>
        <_>
          <internalNodes>
            0 -1 78 1.7320942878723145e-01</internalNodes>
          <leafValues>
            -5.5599678307771683e-02 6.3891267776489258e-01</leafValues></_>
        <_>
          <internalNodes>
            0 -1 837 6.2169600278139114e-03</internalNodes>
          <leafValues>
            -1.0029149800539017e-01 3.2003253698348999e-01</leafValues></_>
        <_>
          <internalNodes>
            0 -1 619 1.1730771511793137e-03</internalNodes>
          <leafValues>
            7.4736207723617554e-02 -4.8900666832923889e-01</leafValues></_>
        <_>
          <internalNodes>
            0 -1 563 -3.7136017344892025e-03</internalNodes>
          <leafValues>
            2.4560105800628662e-01 -1.4422972500324249e-01</leafValues></_>
        <_>
          <internalNodes>
            0 -1 228 7.0503875613212585e-03</internalNodes>
          <leafValues>
            -1.0264744609594345e-01 3.6072143912315369e-01</leafValues></_>
        <_>
          <internalNodes>
            0 -1 428 -6.1041186563670635e-04</internalNodes>
          <leafValues>
            -4.4630491733551025e-01 8.3668082952499390e-02</leafValues></_>
        <_>
          <internalNodes>
            0 -1 386 -2.1435542294057086e-05</internalNodes>
          <leafValues>
            1.9432897865772247e-01 -1.8094639480113983e-01</leafValues></_>
        <_>
          <internalNodes>
            0 -1 226 -8.9373526861891150e-04</internalNodes>
          <leafValues>
            2.7397441864013672e-01 -1.2081027776002884e-01</leafValues></_>
        <_>
          <internalNodes>
            0 -1 941 1.4045088028069586e-04</internalNodes>
          <leafValues>
            1.2535977363586426e-01 -2.4246773123741150e-01</leafValues></_>
        <_>
          <internalNodes>
            0 -1 331 2.3857501801103354e-03</internalNodes>
          <leafValues>
            -1.5364028513431549e-01 2.0505605638027191e-01</leafValues></_></weakClassifiers></_>
    <!-- stage 8 -->
    <_>
      <maxWeakCount>38</maxWeakCount>
      <stageThreshold>-1.4422848224639893e+00</stageThreshold>
      <weakClassifiers>
        <_>
          <internalNodes>
            0 -1 746 -5.4224859923124313e-03</internalNodes>
          <leafValues>
            3.0699589848518372e-01 -3.3612126111984253e-01</leafValues></_>
        <_>
          <internalNodes>
            0 -1 748 -3.0001298000570387e-05</internalNodes>
          <leafValues>
            1.6466836631298065e-01 -3.9674040675163269e-01</leafValues></_>
        <_>
          <internalNodes>
            0 -1 356 -6.8605737760663033e-03</internalNodes>
          <leafValues>
            4.6880787611007690e-01 -1.4129720628261566e-01</leafValues></_>
        <_>
          <internalNodes>
            0 -1 488 -5.2708974108099937e-03</internalNodes>
          <leafValues>
            3.9980152249336243e-01 -1.3135144114494324e-01</leafValues></_>
        <_>
          <internalNodes>
            0 -1 2 -2.0477342332014814e-05</internalNodes>
          <leafValues>
            2.1705020964145660e-01 -2.3028700053691864e-01</leafValues></_>
        <_>
          <internalNodes>
            0 -1 31 4.1997665539383888e-04</internalNodes>
          <leafValues>
            1.2428470700979233e-01 -4.6757706999778748e-01</leafValues></_>
        <_>
          <internalNodes>
            0 -1 537 -8.1709083169698715e-03</internalNodes>
          <leafValues>
            5.5579549074172974e-01 -8.9246347546577454e-02</leafValues></_>
        <_>
          <internalNodes>
            0 -1 459 -1.7206119373440742e-02</internalNodes>
          <leafValues>
            -3.5906410217285156e-01 1.4319142699241638e-01</leafValues></_>
        <_>
          <internalNodes>
            0 -1 424 -1.5694993635406718e-05</internalNodes>
          <leafValues>
            1.1585777997970581e-01 -4.1672012209892273e-01</leafValues></_>
        <_>
          <internalNodes>
            0 -1 389 2.4484310415573418e-05</internalNodes>
          <leafValues>
            -2.2088867425918579e-01 1.8487346172332764e-01</leafValues></_>
        <_>
          <internalNodes>
            0 -1 146 -2.0026662945747375e-01</internalNodes>
          <leafValues>
            5.4262083768844604e-01 -7.7806569635868073e-02</leafValues></_>
        <_>
          <internalNodes>
            0 -1 328 2.2270545741776004e-05</internalNodes>
          <leafValues>
            -2.1355311572551727e-01 1.9557403028011322e-01</leafValues></_>
        <_>
          <internalNodes>
            0 -1 318 4.5988645404577255e-02</internalNodes>
          <leafValues>
            7.6096437871456146e-02 -4.9094125628471375e-01</leafValues></_>
        <_>
          <internalNodes>
            0 -1 421 -3.5114943981170654e-02</internalNodes>
          <leafValues>
            -5.3674179315567017e-01 7.6897099614143372e-02</leafValues></_>
        <_>
          <internalNodes>
            0 -1 112 1.5705605968832970e-02</internalNodes>
          <leafValues>
            -1.2831865251064301e-01 3.0037093162536621e-01</leafValues></_>
        <_>
          <internalNodes>
            0 -1 334 1.0810663923621178e-02</internalNodes>
          <leafValues>
            -8.3739489316940308e-02 4.7234779596328735e-01</leafValues></_>
        <_>
          <internalNodes>
            0 -1 367 -2.0460276573430747e-05</internalNodes>
          <leafValues>
            2.4163821339607239e-01 -1.7400753498077393e-01</leafValues></_>
        <_>
          <internalNodes>
            0 -1 371 -5.9494900051504374e-04</internalNodes>
          <leafValues>
            -4.1180136799812317e-01 1.0267168283462524e-01</leafValues></_>
        <_>
          <internalNodes>
            0 -1 104 -6.9450274109840393e-02</internalNodes>
          <leafValues>
            6.8231469392776489e-01 -6.0492228716611862e-02</leafValues></_>
        <_>
          <internalNodes>
            0 -1 368 -7.3961867019534111e-04</internalNodes>
          <leafValues>
            -6.3993310928344727e-01 6.6991649568080902e-02</leafValues></_>
        <_>
          <internalNodes>
            0 -1 150 -1.9637360237538815e-03</internalNodes>
          <leafValues>
            4.8987594246864319e-01 -9.1872133314609528e-02</leafValues></_>
        <_>
          <internalNodes>
            0 -1 410 3.5573118366301060e-03</internalNodes>
          <leafValues>
            -1.1212008446455002e-01 3.2382297515869141e-01</leafValues></_>
        <_>
          <internalNodes>
            0 -1 621 2.1323747932910919e-04</internalNodes>
          <leafValues>
            1.0584919154644012e-01 -3.6775296926498413e-01</leafValues></_>
        <_>
          <internalNodes>
            0 -1 411 -6.4877700060606003e-03</internalNodes>
          <leafValues>
            3.8300293684005737e-01 -1.0044825822114944e-01</leafValues></_>
        <_>
          <internalNodes>
            0 -1 921 -2.1702882804675028e-05</internalNodes>
          <leafValues>
            1.8656104803085327e-01 -1.9187361001968384e-01</leafValues></_>
        <_>
          <internalNodes>
            0 -1 360 2.1424450096674263e-05</internalNodes>
          <leafValues>
            -1.8618880212306976e-01 1.9528603553771973e-01</leafValues></_>
        <_>
          <internalNodes>
            0 -1 26 -2.6776003837585449e-01</internalNodes>
          <leafValues>
            3.5387378931045532e-01 -1.1363196372985840e-01</leafValues></_>
        <_>
          <internalNodes>
            0 -1 556 2.0334149667178281e-05</internalNodes>
          <leafValues>
            -1.9990162551403046e-01 1.7637246847152710e-01</leafValues></_>
        <_>
          <internalNodes>
            0 -1 760 1.0068324627354741e-03</internalNodes>
          <leafValues>
            8.0707676708698273e-02 -4.3663546442985535e-01</leafValues></_>
        <_>
          <internalNodes>
            0 -1 771 -5.1348442211747169e-03</internalNodes>
          <leafValues>
            4.9886673688888550e-01 -7.2473369538784027e-02</leafValues></_>
        <_>
          <internalNodes>
            0 -1 281 2.9012840241193771e-03</internalNodes>
          <leafValues>
            -6.1447311192750931e-02 4.6087989211082458e-01</leafValues></_>
        <_>
          <internalNodes>
            0 -1 394 -5.6439934996888041e-04</internalNodes>
          <leafValues>
            -3.6057963967323303e-01 1.0053809732198715e-01</leafValues></_>
        <_>
          <internalNodes>
            0 -1 379 -1.5860898420214653e-02</internalNodes>
          <leafValues>
            3.0117297172546387e-01 -1.0700814425945282e-01</leafValues></_>
        <_>
          <internalNodes>
            0 -1 248 4.0046762675046921e-02</internalNodes>
          <leafValues>
            -1.1111859977245331e-01 2.7983379364013672e-01</leafValues></_>
        <_>
          <internalNodes>
            0 -1 588 2.1723113022744656e-03</internalNodes>
          <leafValues>
            4.9736294895410538e-02 -6.6821420192718506e-01</leafValues></_>
        <_>
          <internalNodes>
            0 -1 900 1.5723607502877712e-03</internalNodes>
          <leafValues>
            -1.0064535588026047e-01 3.0009591579437256e-01</leafValues></_>
        <_>
          <internalNodes>
            0 -1 837 -5.2785519510507584e-03</internalNodes>
          <leafValues>
            2.9636830091476440e-01 -1.0801773518323898e-01</leafValues></_>
        <_>
          <internalNodes>
            0 -1 498 -3.0436180531978607e-04</internalNodes>
          <leafValues>
            -3.0098006129264832e-01 1.0825490951538086e-01</leafValues></_></weakClassifiers></_>
    <!-- stage 9 -->
    <_>
      <maxWeakCount>47</maxWeakCount>
      <stageThreshold>-1.4032213687896729e+00</stageThreshold>
      <weakClassifiers>
        <_>
          <internalNodes>
            0 -1 313 -1.4328993856906891e-01</internalNodes>
          <leafValues>
            9.1537132859230042e-02 -3.8119879364967346e-01</leafValues></_>
        <_>
          <internalNodes>
            0 -1 642 -8.5843130946159363e-03</internalNodes>
          <leafValues>
            4.3291944265365601e-01 -1.2806673347949982e-01</leafValues></_>
        <_>
          <internalNodes>
            0 -1 449 -2.2710273042321205e-02</internalNodes>
          <leafValues>
            3.5619401931762695e-01 -1.9342572987079620e-01</leafValues></_>
        <_>
          <internalNodes>
            0 -1 576 1.4632283709943295e-03</internalNodes>
          <leafValues>
            1.6222321987152100e-01 -3.7477299571037292e-01</leafValues></_>
        <_>
          <internalNodes>
            0 -1 91 9.3464821577072144e-02</internalNodes>
          <leafValues>
            1.1891459673643112e-01 -4.7974589467048645e-01</leafValues></_>
        <_>
          <internalNodes>
            0 -1 493 -4.7566268593072891e-02</internalNodes>
          <leafValues>
            3.3814865350723267e-01 -1.5241123735904694e-01</leafValues></_>
        <_>
          <internalNodes>
            0 -1 179 4.2214564746245742e-04</internalNodes>
          <leafValues>
            -3.6212444305419922e-01 1.2664447724819183e-01</leafValues></_>
        <_>
          <internalNodes>
            0 -1 607 -1.7592713702470064e-03</internalNodes>
          <leafValues>
            -3.5704568028450012e-01 1.1438171565532684e-01</leafValues></_>
        <_>
          <internalNodes>
            0 -1 131 -3.2487638294696808e-02</internalNodes>
          <leafValues>
            3.2686913013458252e-01 -1.0026160627603531e-01</leafValues></_>
        <_>
          <internalNodes>
            0 -1 870 -1.5530183911323547e-02</internalNodes>
          <leafValues>
            4.3696284294128418e-01 -1.0421630740165710e-01</leafValues></_>
        <_>
          <internalNodes>
            0 -1 940 1.4819478383287787e-04</internalNodes>
          <leafValues>
            1.2319784611463547e-01 -3.3158093690872192e-01</leafValues></_>
        <_>
          <internalNodes>
            0 -1 456 -3.0986170168034732e-04</internalNodes>
          <leafValues>
            -3.4305918216705322e-01 7.7486664056777954e-02</leafValues></_>
        <_>
          <internalNodes>
            0 -1 634 -6.7537291906774044e-03</internalNodes>
          <leafValues>
            4.5984280109405518e-01 -5.3423222154378891e-02</leafValues></_>
        <_>
          <internalNodes>
            0 -1 7 -7.1095273597165942e-04</internalNodes>
          <leafValues>
            -2.7923950552940369e-01 1.0617951303720474e-01</leafValues></_>
        <_>
          <internalNodes>
            0 -1 13 -1.2209727174194995e-05</internalNodes>
          <leafValues>
            1.8112678825855255e-01 -2.2257959842681885e-01</leafValues></_>
        <_>
          <internalNodes>
            0 -1 178 -2.5206431746482849e-04</internalNodes>
          <leafValues>
            -3.0389890074729919e-01 1.5551437437534332e-01</leafValues></_>
        <_>
          <internalNodes>
            0 -1 213 -1.1711454018950462e-02</internalNodes>
          <leafValues>
            4.5879405736923218e-01 -6.7413829267024994e-02</leafValues></_>
        <_>
          <internalNodes>
            0 -1 266 5.8214031159877777e-03</internalNodes>
          <leafValues>
            -1.2420272082090378e-01 2.7836644649505615e-01</leafValues></_>
        <_>
          <internalNodes>
            0 -1 48 -6.4024969935417175e-02</internalNodes>
          <leafValues>
            5.0530201196670532e-01 -6.5763868391513824e-02</leafValues></_>
        <_>
          <internalNodes>
            0 -1 290 7.6529858633875847e-03</internalNodes>
          <leafValues>
            -8.8599264621734619e-02 3.8682949542999268e-01</leafValues></_>
        <_>
          <internalNodes>
            0 -1 586 3.2670079963281751e-04</internalNodes>
          <leafValues>
            7.5210630893707275e-02 -4.3418180942535400e-01</leafValues></_>
        <_>
          <internalNodes>
            0 -1 286 1.0747966589406133e-03</internalNodes>
          <leafValues>
            -2.3362550139427185e-01 1.4058990776538849e-01</leafValues></_>
        <_>
          <internalNodes>
            0 -1 232 -4.6283397823572159e-03</internalNodes>
          <leafValues>
            3.9736852049827576e-01 -8.8373959064483643e-02</leafValues></_>
        <_>
          <internalNodes>
            0 -1 713 4.4757558498531580e-04</internalNodes>
          <leafValues>
            9.1470941901206970e-02 -3.5105535387992859e-01</leafValues></_>
        <_>
          <internalNodes>
            0 -1 750 -3.9816478965803981e-04</internalNodes>
          <leafValues>
            -3.0603525042533875e-01 8.9784570038318634e-02</leafValues></_>
        <_>
          <internalNodes>
            0 -1 602 -1.6841914504766464e-02</internalNodes>
          <leafValues>
            2.6844045519828796e-01 -1.2283447384834290e-01</leafValues></_>
        <_>
          <internalNodes>
            0 -1 561 2.3782121017575264e-02</internalNodes>
          <leafValues>
            -1.0770122706890106e-01 3.4050139784812927e-01</leafValues></_>
        <_>
          <internalNodes>
            0 -1 625 -2.7638043320621364e-05</internalNodes>
          <leafValues>
            1.6209052503108978e-01 -1.8230116367340088e-01</leafValues></_>
        <_>
          <internalNodes>
            0 -1 85 2.2337069822242483e-05</internalNodes>
          <leafValues>
            -1.5640965104103088e-01 1.8474702537059784e-01</leafValues></_>
        <_>
          <internalNodes>
            0 -1 118 -5.3537893109023571e-03</internalNodes>
          <leafValues>
            2.5726109743118286e-01 -1.1681645363569260e-01</leafValues></_>
        <_>
          <internalNodes>
            0 -1 507 1.1041901307180524e-03</internalNodes>
          <leafValues>
            5.9921659529209137e-02 -5.1899951696395874e-01</leafValues></_>
        <_>
          <internalNodes>
            0 -1 805 1.6939092893153429e-03</internalNodes>
          <leafValues>
            -9.0552717447280884e-02 3.4642317891120911e-01</leafValues></_>
        <_>
          <internalNodes>
            0 -1 780 -1.7154619097709656e-02</internalNodes>
          <leafValues>
            3.0054664611816406e-01 -8.4703378379344940e-02</leafValues></_>
        <_>
          <internalNodes>
            0 -1 828 1.3320137746632099e-02</internalNodes>
          <leafValues>
            -1.2736189365386963e-01 2.5781407952308655e-01</leafValues></_>
        <_>
          <internalNodes>
            0 -1 240 4.3877243995666504e-01</internalNodes>
          <leafValues>
            -9.7083613276481628e-02 3.2845601439476013e-01</leafValues></_>
        <_>
          <internalNodes>
            0 -1 50 -3.5463467240333557e-01</internalNodes>
          <leafValues>
            5.3465712070465088e-01 -5.9239353984594345e-02</leafValues></_>
        <_>
          <internalNodes>
            0 -1 661 -9.8154868464916945e-04</internalNodes>
          <leafValues>
            -4.0136426687240601e-01 9.4527013599872589e-02</leafValues></_>
        <_>
          <internalNodes>
            0 -1 474 1.0555924382060766e-03</internalNodes>
          <leafValues>
            -1.3506549596786499e-01 2.5462666153907776e-01</leafValues></_>
        <_>
          <internalNodes>
            0 -1 463 -2.8946745442226529e-04</internalNodes>
          <leafValues>
            -2.6987463235855103e-01 1.0025267302989960e-01</leafValues></_>
        <_>
          <internalNodes>
            0 -1 931 1.8164715729653835e-03</internalNodes>
          <leafValues>
            -1.2745662033557892e-01 2.3289799690246582e-01</leafValues></_>
        <_>
          <internalNodes>
            0 -1 70 1.5704098343849182e-01</internalNodes>
          <leafValues>
            4.4480584561824799e-02 -5.7696622610092163e-01</leafValues></_>
        <_>
          <internalNodes>
            0 -1 385 -6.3523901626467705e-03</internalNodes>
          <leafValues>
            3.0011698603630066e-01 -9.2325814068317413e-02</leafValues></_>
        <_>
          <internalNodes>
            0 -1 529 1.1152257211506367e-03</internalNodes>
          <leafValues>
            -1.2967194616794586e-01 2.4193489551544189e-01</leafValues></_>
        <_>
          <internalNodes>
            0 -1 468 1.2521944008767605e-03</internalNodes>
          <leafValues>
            6.7808881402015686e-02 -4.5895931124687195e-01</leafValues></_>
        <_>
          <internalNodes>
            0 -1 294 2.5113182346103713e-05</internalNodes>
          <leafValues>
            -1.9022871553897858e-01 1.4816160500049591e-01</leafValues></_>
        <_>
          <internalNodes>
            0 -1 435 -4.3737506493926048e-03</internalNodes>
          <leafValues>
            3.2766771316528320e-01 -8.2763098180294037e-02</leafValues></_>
        <_>
          <internalNodes>
            0 -1 550 1.4698947779834270e-03</internalNodes>
          <leafValues>
            4.5481096953153610e-02 -5.9207850694656372e-01</leafValues></_></weakClassifiers></_>
    <!-- stage 10 -->
    <_>
      <maxWeakCount>55</maxWeakCount>
      <stageThreshold>-1.3673936128616333e+00</stageThreshold>
      <weakClassifiers>
        <_>
          <internalNodes>
            0 -1 314 -7.1252182126045227e-02</internalNodes>
          <leafValues>
            1.0186915844678879e-01 -3.6850851774215698e-01</leafValues></_>
        <_>
          <internalNodes>
            0 -1 610 -3.0794602935202420e-05</internalNodes>
          <leafValues>
            1.0623589903116226e-01 -4.1648164391517639e-01</leafValues></_>
        <_>
          <internalNodes>
            0 -1 115 2.5454295799136162e-02</internalNodes>
          <leafValues>
            -1.1996668577194214e-01 3.0176952481269836e-01</leafValues></_>
        <_>
          <internalNodes>
            0 -1 255 -6.8184908013790846e-04</internalNodes>
          <leafValues>
            2.2382783889770508e-01 -2.0364718139171600e-01</leafValues></_>
        <_>
          <internalNodes>
            0 -1 190 4.1049987077713013e-02</internalNodes>
          <leafValues>
            -1.3084247708320618e-01 3.2352003455162048e-01</leafValues></_>
        <_>
          <internalNodes>
            0 -1 636 6.3876107335090637e-02</internalNodes>
          <leafValues>
            -1.1392780393362045e-01 2.8293862938880920e-01</leafValues></_>
        <_>
          <internalNodes>
            0 -1 439 2.8134401887655258e-02</internalNodes>
          <leafValues>
            -1.3715592026710510e-01 3.3939829468727112e-01</leafValues></_>
        <_>
          <internalNodes>
            0 -1 847 -2.6907160645350814e-05</internalNodes>
          <leafValues>
            1.6151994466781616e-01 -2.3320887982845306e-01</leafValues></_>
        <_>
          <internalNodes>
            0 -1 198 3.8833057880401611e-01</internalNodes>
          <leafValues>
            -9.6432998776435852e-02 3.5893785953521729e-01</leafValues></_>
        <_>
          <internalNodes>
            0 -1 615 -2.3072501644492149e-03</internalNodes>
          <leafValues>
            -3.7529587745666504e-01 1.6166874766349792e-01</leafValues></_>
        <_>
          <internalNodes>
            0 -1 0 1.1416677443776280e-04</internalNodes>
          <leafValues>
            6.8917907774448395e-02 -3.4855389595031738e-01</leafValues></_>
        <_>
          <internalNodes>
            0 -1 546 9.4618613366037607e-04</internalNodes>
          <leafValues>
            8.3135299384593964e-02 -4.6860027313232422e-01</leafValues></_>
        <_>
          <internalNodes>
            0 -1 795 8.0833900719881058e-03</internalNodes>
          <leafValues>
            -1.2666246294975281e-01 2.7308985590934753e-01</leafValues></_>
        <_>
          <internalNodes>
            0 -1 668 -2.2729465737938881e-02</internalNodes>
          <leafValues>
            3.3004406094551086e-01 -7.0443406701087952e-02</leafValues></_>
        <_>
          <internalNodes>
            0 -1 390 -5.0947228446602821e-03</internalNodes>
          <leafValues>
            3.2949006557464600e-01 -9.6481241285800934e-02</leafValues></_>
        <_>
          <internalNodes>
            0 -1 218 5.6723086163401604e-03</internalNodes>
          <leafValues>
            -1.3179589807987213e-01 2.6197662949562073e-01</leafValues></_>
        <_>
          <internalNodes>
            0 -1 62 6.1047685449011624e-05</internalNodes>
          <leafValues>
            -2.3829065263271332e-01 1.2328913807868958e-01</leafValues></_>
        <_>
          <internalNodes>
            0 -1 784 -1.9007705850526690e-04</internalNodes>
          <leafValues>
            -3.1737625598907471e-01 9.8163023591041565e-02</leafValues></_>
        <_>
          <internalNodes>
            0 -1 227 -5.7282089255750179e-03</internalNodes>
          <leafValues>
            2.2799003124237061e-01 -1.2903647124767303e-01</leafValues></_>
        <_>
          <internalNodes>
            0 -1 783 2.6873248862102628e-04</internalNodes>
          <leafValues>
            1.3536731898784637e-01 -2.6517531275749207e-01</leafValues></_>
        <_>
          <internalNodes>
            0 -1 742 2.1649945527315140e-02</internalNodes>
          <leafValues>
            -1.3796712458133698e-01 2.3430944979190826e-01</leafValues></_>
        <_>
          <internalNodes>
            0 -1 758 3.0156010761857033e-03</internalNodes>
          <leafValues>
            7.4786260724067688e-02 -5.2273988723754883e-01</leafValues></_>
        <_>
          <internalNodes>
            0 -1 6 -4.1620325646363199e-04</internalNodes>
          <leafValues>
            -2.6838895678520203e-01 9.7410418093204498e-02</leafValues></_>
        <_>
          <internalNodes>
            0 -1 32 -2.4531771487090737e-05</internalNodes>
          <leafValues>
            1.7518451809883118e-01 -1.8396210670471191e-01</leafValues></_>
        <_>
          <internalNodes>
            0 -1 928 -3.2461183145642281e-03</internalNodes>
          <leafValues>
            3.5662022233009338e-01 -7.5402908027172089e-02</leafValues></_>
        <_>
          <internalNodes>
            0 -1 909 -2.5403128936886787e-02</internalNodes>
          <leafValues>
            -4.5807746052742004e-01 6.0046486556529999e-02</leafValues></_>
        <_>
          <internalNodes>
            0 -1 559 3.0686203390359879e-02</internalNodes>
          <leafValues>
            -9.7169227898120880e-02 3.2105484604835510e-01</leafValues></_>
        <_>
          <internalNodes>
            0 -1 775 -2.0985775627195835e-03</internalNodes>
          <leafValues>
            1.9409734010696411e-01 -1.3958637416362762e-01</leafValues></_>
        <_>
          <internalNodes>
            0 -1 462 1.9532827718649060e-04</internalNodes>
          <leafValues>
            7.9991124570369720e-02 -3.2675042748451233e-01</leafValues></_>
        <_>
          <internalNodes>
            0 -1 8 3.7156767211854458e-03</internalNodes>
          <leafValues>
            -8.9069128036499023e-02 2.8780859708786011e-01</leafValues></_>
        <_>
          <internalNodes>
            0 -1 843 -3.7515268195420504e-04</internalNodes>
          <leafValues>
            -3.4470885992050171e-01 7.6993323862552643e-02</leafValues></_>
        <_>
          <internalNodes>
            0 -1 777 3.7400401197373867e-03</internalNodes>
          <leafValues>
            -6.8573929369449615e-02 3.9204093813896179e-01</leafValues></_>
        <_>
          <internalNodes>
            0 -1 244 2.3582011635880917e-05</internalNodes>
          <leafValues>
            -1.6986070573329926e-01 1.4326593279838562e-01</leafValues></_>
        <_>
          <internalNodes>
            0 -1 589 -5.2185999229550362e-03</internalNodes>
          <leafValues>
            -7.2128367424011230e-01 3.1164173036813736e-02</leafValues></_>
        <_>
          <internalNodes>
            0 -1 326 1.8033632077276707e-03</internalNodes>
          <leafValues>
            -1.1900828033685684e-01 2.2077037394046783e-01</leafValues></_>
        <_>
          <internalNodes>
            0 -1 932 3.5530878230929375e-03</internalNodes>
          <leafValues>
            -7.9379968345165253e-02 3.1351006031036377e-01</leafValues></_>
        <_>
          <internalNodes>
            0 -1 644 -1.3089978601783514e-03</internalNodes>
          <leafValues>
            2.5896921753883362e-01 -8.6046166718006134e-02</leafValues></_>
        <_>
          <internalNodes>
            0 -1 393 1.8553319387137890e-04</internalNodes>
          <leafValues>
            9.6166081726551056e-02 -2.7833381295204163e-01</leafValues></_>
        <_>
          <internalNodes>
            0 -1 297 1.0603302717208862e-01</internalNodes>
          <leafValues>
            -9.9085524678230286e-02 2.4477830529212952e-01</leafValues></_>
        <_>
          <internalNodes>
            0 -1 203 -4.1565679013729095e-02</internalNodes>
          <leafValues>
            3.2402884960174561e-01 -7.7454462647438049e-02</leafValues></_>
        <_>
          <internalNodes>
            0 -1 40 -1.2674060463905334e-01</internalNodes>
          <leafValues>
            6.0984593629837036e-01 -4.0865801274776459e-02</leafValues></_>
        <_>
          <internalNodes>
            0 -1 309 -1.6508474946022034e-02</internalNodes>
          <leafValues>
            2.3249882459640503e-01 -1.0978116840124130e-01</leafValues></_>
        <_>
          <internalNodes>
            0 -1 678 2.5492905479040928e-05</internalNodes>
          <leafValues>
            -1.7745988070964813e-01 1.5237115323543549e-01</leafValues></_>
        <_>
          <internalNodes>
            0 -1 189 3.6392532289028168e-02</internalNodes>
          <leafValues>
            -1.1135243624448776e-01 2.3035760223865509e-01</leafValues></_>
        <_>
          <internalNodes>
            0 -1 612 2.0706034265458584e-03</internalNodes>
          <leafValues>
            5.2311554551124573e-02 -5.2386999130249023e-01</leafValues></_>
        <_>
          <internalNodes>
            0 -1 128 6.8642990663647652e-03</internalNodes>
          <leafValues>
            -9.2687197029590607e-02 2.7458721399307251e-01</leafValues></_>
        <_>
          <internalNodes>
            0 -1 669 -1.5083972830325365e-03</internalNodes>
          <leafValues>
            -8.2551145553588867e-01 3.1362202018499374e-02</leafValues></_>
        <_>
          <internalNodes>
            0 -1 107 -1.0099427402019501e-01</internalNodes>
          <leafValues>
            -4.7488817572593689e-01 4.5565981417894363e-02</leafValues></_>
        <_>
          <internalNodes>
            0 -1 839 1.0531831532716751e-02</internalNodes>
          <leafValues>
            -1.1239977926015854e-01 2.5165417790412903e-01</leafValues></_>
        <_>
          <internalNodes>
            0 -1 204 -5.2001038566231728e-03</internalNodes>
          <leafValues>
            2.2206076979637146e-01 -1.1913511157035828e-01</leafValues></_>
        <_>
          <internalNodes>
            0 -1 593 -2.1053898334503174e-01</internalNodes>
          <leafValues>
            -5.2958321571350098e-01 4.9688242375850677e-02</leafValues></_>
        <_>
          <internalNodes>
            0 -1 948 -4.2960501741617918e-04</internalNodes>
          <leafValues>
            1.0690990835428238e-01 -2.1094331145286560e-01</leafValues></_>
        <_>
          <internalNodes>
            0 -1 202 1.4264330966398120e-03</internalNodes>
          <leafValues>
            -8.2292072474956512e-02 2.9812476038932800e-01</leafValues></_>
        <_>
          <internalNodes>
            0 -1 761 -6.3091225456446409e-04</internalNodes>
          <leafValues>
            -2.4446116387844086e-01 1.0078487545251846e-01</leafValues></_>
        <_>
          <internalNodes>
            0 -1 794 -2.6484736736165360e-05</internalNodes>
          <leafValues>
            1.4572367072105408e-01 -1.6236428916454315e-01</leafValues></_></weakClassifiers></_>
    <!-- stage 11 -->
    <_>
      <maxWeakCount>55</maxWeakCount>
      <stageThreshold>-1.3507615327835083e+00</stageThreshold>
      <weakClassifiers>
        <_>
          <internalNodes>
            0 -1 252 -2.0485469698905945e-01</internalNodes>
          <leafValues>
            1.2627707421779633e-01 -4.1380074620246887e-01</leafValues></_>
        <_>
          <internalNodes>
            0 -1 689 8.9606200344860554e-04</internalNodes>
          <leafValues>
            8.5513152182102203e-02 -4.0442475676536560e-01</leafValues></_>
        <_>
          <internalNodes>
            0 -1 635 -8.7882243096828461e-03</internalNodes>
          <leafValues>
            2.6311898231506348e-01 -1.3123644888401031e-01</leafValues></_>
        <_>
          <internalNodes>
            0 -1 230 1.5229348093271255e-02</internalNodes>
          <leafValues>
            -9.1345801949501038e-02 3.3243724703788757e-01</leafValues></_>
        <_>
          <internalNodes>
            0 -1 723 2.4694572202861309e-03</internalNodes>
          <leafValues>
            -5.0841283053159714e-02 8.4637355804443359e-01</leafValues></_>
        <_>
          <internalNodes>
            0 -1 902 1.6568414866924286e-03</internalNodes>
          <leafValues>
            -1.1676118522882462e-01 3.1344258785247803e-01</leafValues></_>
        <_>
          <internalNodes>
            0 -1 877 -2.0221930462867022e-03</internalNodes>
          <leafValues>
            3.2295131683349609e-01 -6.3842259347438812e-02</leafValues></_>
        <_>
          <internalNodes>
            0 -1 162 -6.0867428779602051e-02</internalNodes>
          <leafValues>
            4.1424664855003357e-01 -8.5589319467544556e-02</leafValues></_>
        <_>
          <internalNodes>
            0 -1 525 -4.4574765488505363e-03</internalNodes>
          <leafValues>
            1.8760310113430023e-01 -1.8352442979812622e-01</leafValues></_>
        <_>
          <internalNodes>
            0 -1 545 -3.1198316719383001e-04</internalNodes>
          <leafValues>
            -3.3489775657653809e-01 1.1234236508607864e-01</leafValues></_>
        <_>
          <internalNodes>
            0 -1 79 4.6338957548141479e-01</internalNodes>
          <leafValues>
            -6.2749885022640228e-02 3.9501476287841797e-01</leafValues></_>
        <_>
          <internalNodes>
            0 -1 355 -1.1391279287636280e-02</internalNodes>
          <leafValues>
            3.1595468521118164e-01 -1.3146142661571503e-01</leafValues></_>
        <_>
          <internalNodes>
            0 -1 736 -2.3414839059114456e-02</internalNodes>
          <leafValues>
            -6.8575006723403931e-01 7.2772115468978882e-02</leafValues></_>
        <_>
          <internalNodes>
            0 -1 927 8.7333854753524065e-04</internalNodes>
          <leafValues>
            -1.2779332697391510e-01 2.6344713568687439e-01</leafValues></_>
        <_>
          <internalNodes>
            0 -1 906 2.5571268633939326e-04</internalNodes>
          <leafValues>
            1.3819514214992523e-01 -2.1661062538623810e-01</leafValues></_>
        <_>
          <internalNodes>
            0 -1 91 -9.6318826079368591e-02</internalNodes>
          <leafValues>
            -4.5357301831245422e-01 3.3460639417171478e-02</leafValues></_>
        <_>
          <internalNodes>
            0 -1 675 8.3510922268033028e-03</internalNodes>
          <leafValues>
            -1.2009513378143311e-01 2.2500148415565491e-01</leafValues></_>
        <_>
          <internalNodes>
            0 -1 659 8.8512082584202290e-05</internalNodes>
          <leafValues>
            1.1383005976676941e-01 -2.4140435457229614e-01</leafValues></_>
        <_>
          <internalNodes>
            0 -1 143 7.6356828212738037e-03</internalNodes>
          <leafValues>
            -7.1416452527046204e-02 4.0024113655090332e-01</leafValues></_>
        <_>
          <internalNodes>
            0 -1 166 9.8774451762437820e-03</internalNodes>
          <leafValues>
            5.2196387201547623e-02 -5.2275621891021729e-01</leafValues></_>
        <_>
          <internalNodes>
            0 -1 223 -9.4945472665131092e-04</internalNodes>
          <leafValues>
            2.1192759275436401e-01 -1.3327911496162415e-01</leafValues></_>
        <_>
          <internalNodes>
            0 -1 194 -2.5495473528280854e-04</internalNodes>
          <leafValues>
            1.6947942972183228e-01 -1.5861502289772034e-01</leafValues></_>
        <_>
          <internalNodes>
            0 -1 631 -3.3289245329797268e-03</internalNodes>
          <leafValues>
            2.1215470135211945e-01 -1.2624651193618774e-01</leafValues></_>
        <_>
          <internalNodes>
            0 -1 673 2.1401778212748468e-04</internalNodes>
          <leafValues>
            -2.1192048490047455e-01 1.2903366982936859e-01</leafValues></_>
        <_>
          <internalNodes>
            0 -1 953 -1.4894921332597733e-04</internalNodes>
          <leafValues>
            -2.1315309405326843e-01 1.1692760139703751e-01</leafValues></_>
        <_>
          <internalNodes>
            0 -1 725 -7.4974622111767530e-04</internalNodes>
          <leafValues>
            2.1007992327213287e-01 -1.2312018126249313e-01</leafValues></_>
        <_>
          <internalNodes>
            0 -1 714 1.3448075624182820e-03</internalNodes>
          <leafValues>
            4.5863207429647446e-02 -5.3132069110870361e-01</leafValues></_>
        <_>
          <internalNodes>
            0 -1 1 1.2282656098250300e-04</internalNodes>
          <leafValues>
            8.2403369247913361e-02 -2.5665012001991272e-01</leafValues></_>
        <_>
          <internalNodes>
            0 -1 21 1.1814688332378864e-03</internalNodes>
          <leafValues>
            -2.1100948750972748e-01 1.0983505845069885e-01</leafValues></_>
        <_>
          <internalNodes>
            0 -1 712 -1.1193125828867778e-04</internalNodes>
          <leafValues>
            -2.5061321258544922e-01 9.0878807008266449e-02</leafValues></_>
        <_>
          <internalNodes>
            0 -1 734 1.1284800246357918e-02</internalNodes>
          <leafValues>
            3.4819107502698898e-02 -6.1877924203872681e-01</leafValues></_>
        <_>
          <internalNodes>
            0 -1 737 2.9164063744246960e-03</internalNodes>
          <leafValues>
            -9.7743608057498932e-02 2.3082783818244934e-01</leafValues></_>
        <_>
          <internalNodes>
            0 -1 38 8.1230541691184044e-03</internalNodes>
          <leafValues>
            1.1085444688796997e-01 -2.1931639313697815e-01</leafValues></_>
        <_>
          <internalNodes>
            0 -1 437 3.9334213361144066e-03</internalNodes>
          <leafValues>
            -1.0594213753938675e-01 2.3319733142852783e-01</leafValues></_>
        <_>
          <internalNodes>
            0 -1 231 1.4605835312977433e-03</internalNodes>
          <leafValues>
            -6.0764700174331665e-02 3.5411399602890015e-01</leafValues></_>
        <_>
          <internalNodes>
            0 -1 702 7.0640849880874157e-03</internalNodes>
          <leafValues>
            3.7470962852239609e-02 -6.3330918550491333e-01</leafValues></_>
        <_>
          <internalNodes>
            0 -1 601 -2.1004531532526016e-02</internalNodes>
          <leafValues>
            -5.0276565551757813e-01 3.6556396633386612e-02</leafValues></_>
        <_>
          <internalNodes>
            0 -1 282 -2.0874995971098542e-04</internalNodes>
          <leafValues>
            -3.0383047461509705e-01 6.6828519105911255e-02</leafValues></_>
        <_>
          <internalNodes>
            0 -1 283 -2.4590366592747159e-05</internalNodes>
          <leafValues>
            1.6764104366302490e-01 -1.3808628916740417e-01</leafValues></_>
        <_>
          <internalNodes>
            0 -1 186 -1.5398990362882614e-02</internalNodes>
          <leafValues>
            3.4254613518714905e-01 -7.6929770410060883e-02</leafValues></_>
        <_>
          <internalNodes>
            0 -1 251 6.8647384643554688e-02</internalNodes>
          <leafValues>
            5.5143125355243683e-02 -3.9475971460342407e-01</leafValues></_>
        <_>
          <internalNodes>
            0 -1 789 -3.0065873637795448e-02</internalNodes>
          <leafValues>
            -5.9398853778839111e-01 3.5987563431262970e-02</leafValues></_>
        <_>
          <internalNodes>
            0 -1 110 -1.4770795824006200e-03</internalNodes>
          <leafValues>
            3.2146066427230835e-01 -6.9179840385913849e-02</leafValues></_>
        <_>
          <internalNodes>
            0 -1 579 1.4722666237503290e-03</internalNodes>
          <leafValues>
            6.5285317599773407e-02 -3.6886990070343018e-01</leafValues></_>
        <_>
          <internalNodes>
            0 -1 209 -9.4526290893554688e-02</internalNodes>
          <leafValues>
            2.7336740493774414e-01 -9.4727985560894012e-02</leafValues></_>
        <_>
          <internalNodes>
            0 -1 526 1.8858070671558380e-01</internalNodes>
          <leafValues>
            -1.4099466800689697e-01 2.3584111034870148e-01</leafValues></_>
        <_>
          <internalNodes>
            0 -1 246 -2.7617120742797852e-01</internalNodes>
          <leafValues>
            4.5561414957046509e-01 -5.1936145871877670e-02</leafValues></_>
        <_>
          <internalNodes>
            0 -1 721 -8.7056411430239677e-03</internalNodes>
          <leafValues>
            3.0276933312416077e-01 -7.2289049625396729e-02</leafValues></_>
        <_>
          <internalNodes>
            0 -1 264 -8.6257588118314743e-03</internalNodes>
          <leafValues>
            2.4449753761291504e-01 -1.0165031999349594e-01</leafValues></_>
        <_>
          <internalNodes>
            0 -1 917 -4.0364011510973796e-05</internalNodes>
          <leafValues>
            -2.3225700855255127e-01 9.6183545887470245e-02</leafValues></_>
        <_>
          <internalNodes>
            0 -1 733 -3.9050588384270668e-03</internalNodes>
          <leafValues>
            2.4556599557399750e-01 -8.6518846452236176e-02</leafValues></_>
        <_>
          <internalNodes>
            0 -1 819 4.7398963943123817e-03</internalNodes>
          <leafValues>
            -9.9837929010391235e-02 2.0508338510990143e-01</leafValues></_>
        <_>
          <internalNodes>
            0 -1 856 1.8408842151984572e-04</internalNodes>
          <leafValues>
            1.0532755404710770e-01 -2.2379931807518005e-01</leafValues></_>
        <_>
          <internalNodes>
            0 -1 826 -9.0094227343797684e-03</internalNodes>
          <leafValues>
            2.5040200352668762e-01 -9.0456455945968628e-02</leafValues></_>
        <_>
          <internalNodes>
            0 -1 853 -2.6713847182691097e-04</internalNodes>
          <leafValues>
            -2.9636502265930176e-01 9.0627610683441162e-02</leafValues></_></weakClassifiers></_>
    <!-- stage 12 -->
    <_>
      <maxWeakCount>64</maxWeakCount>
      <stageThreshold>-1.2839967012405396e+00</stageThreshold>
      <weakClassifiers>
        <_>
          <internalNodes>
            0 -1 694 6.0513378120958805e-03</internalNodes>
          <leafValues>
            -2.6769879460334778e-01 7.4750828742980957e-01</leafValues></_>
        <_>
          <internalNodes>
            0 -1 755 -3.4684604033827782e-03</internalNodes>
          <leafValues>
            2.0791551470756531e-01 -1.7931082844734192e-01</leafValues></_>
        <_>
          <internalNodes>
            0 -1 889 3.5000296775251627e-03</internalNodes>
          <leafValues>
            -9.1957442462444305e-02 3.7983793020248413e-01</leafValues></_>
        <_>
          <internalNodes>
            0 -1 136 -1.5471220249310136e-03</internalNodes>
          <leafValues>
            2.7226248383522034e-01 -8.3817459642887115e-02</leafValues></_>
        <_>
          <internalNodes>
            0 -1 373 -2.3505800962448120e-01</internalNodes>
          <leafValues>
            2.4434748291969299e-01 -1.2530991435050964e-01</leafValues></_>
        <_>
          <internalNodes>
            0 -1 171 -6.2491260468959808e-03</internalNodes>
          <leafValues>
            2.3063887655735016e-01 -1.1898344755172729e-01</leafValues></_>
        <_>
          <internalNodes>
            0 -1 711 3.1008711084723473e-04</internalNodes>
          <leafValues>
            8.7176479399204254e-02 -2.9737359285354614e-01</leafValues></_>
        <_>
          <internalNodes>
            0 -1 892 -1.3770679943263531e-03</internalNodes>
          <leafValues>
            3.1490784883499146e-01 -5.8837894350290298e-02</leafValues></_>
        <_>
          <internalNodes>
            0 -1 868 1.1975951565545984e-05</internalNodes>
          <leafValues>
            -1.9815465807914734e-01 1.2592265009880066e-01</leafValues></_>
        <_>
          <internalNodes>
            0 -1 873 -1.3065856182947755e-04</internalNodes>
          <leafValues>
            -2.1189345419406891e-01 1.2691752612590790e-01</leafValues></_>
        <_>
          <internalNodes>
            0 -1 825 9.7758043557405472e-03</internalNodes>
          <leafValues>
            -5.0833705812692642e-02 3.4542536735534668e-01</leafValues></_>
        <_>
          <internalNodes>
            0 -1 577 2.8949533589184284e-03</internalNodes>
          <leafValues>
            5.4936844855546951e-02 -4.5154669880867004e-01</leafValues></_>
        <_>
          <internalNodes>
            0 -1 274 4.8936471343040466e-02</internalNodes>
          <leafValues>
            -7.3281854391098022e-02 4.4116297364234924e-01</leafValues></_>
        <_>
          <internalNodes>
            0 -1 504 1.0800547897815704e-03</internalNodes>
          <leafValues>
            8.9458324015140533e-02 -3.5338038206100464e-01</leafValues></_>
        <_>
          <internalNodes>
            0 -1 169 2.6911362074315548e-03</internalNodes>
          <leafValues>
            -7.8026354312896729e-02 3.2587885856628418e-01</leafValues></_>
        <_>
          <internalNodes>
            0 -1 716 -6.1310627497732639e-03</internalNodes>
          <leafValues>
            2.1392650902271271e-01 -1.0875711590051651e-01</leafValues></_>
        <_>
          <internalNodes>
            0 -1 5 6.2330457149073482e-04</internalNodes>
          <leafValues>
            9.5686249434947968e-02 -2.5064012408256531e-01</leafValues></_>
        <_>
          <internalNodes>
            0 -1 699 2.4749878793954849e-02</internalNodes>
          <leafValues>
            -5.7097800076007843e-02 4.5544490218162537e-01</leafValues></_>
        <_>
          <internalNodes>
            0 -1 617 2.4054033681750298e-02</internalNodes>
          <leafValues>
            3.2123502343893051e-02 -8.6585879325866699e-01</leafValues></_>
        <_>
          <internalNodes>
            0 -1 835 1.4503501355648041e-02</internalNodes>
          <leafValues>
            -8.6897253990173340e-02 2.7848067879676819e-01</leafValues></_>
        <_>
          <internalNodes>
            0 -1 149 -2.8350062668323517e-02</internalNodes>
          <leafValues>
            -5.9121763706207275e-01 4.4838823378086090e-02</leafValues></_>
        <_>
          <internalNodes>
            0 -1 29 6.7040778230875731e-04</internalNodes>
          <leafValues>
            -1.8877677619457245e-01 1.1535264551639557e-01</leafValues></_>
        <_>
          <internalNodes>
            0 -1 855 -2.0272531546652317e-03</internalNodes>
          <leafValues>
            2.4799710512161255e-01 -8.6163565516471863e-02</leafValues></_>
        <_>
          <internalNodes>
            0 -1 814 4.7191036865115166e-03</internalNodes>
          <leafValues>
            4.2541176080703735e-02 -4.8219031095504761e-01</leafValues></_>
        <_>
          <internalNodes>
            0 -1 643 4.4941206579096615e-04</internalNodes>
          <leafValues>
            -1.0064059495925903e-01 1.9801796972751617e-01</leafValues></_>
        <_>
          <internalNodes>
            0 -1 433 1.7754193395376205e-02</internalNodes>
          <leafValues>
            -9.8847702145576477e-02 2.1582950651645660e-01</leafValues></_>
        <_>
          <internalNodes>
            0 -1 60 1.2011793255805969e-01</internalNodes>
          <leafValues>
            4.3273702263832092e-02 -5.0192952156066895e-01</leafValues></_>
        <_>
          <internalNodes>
            0 -1 458 5.4511707276105881e-04</internalNodes>
          <leafValues>
            5.9190943837165833e-02 -3.1274396181106567e-01</leafValues></_>
        <_>
          <internalNodes>
            0 -1 33 -5.7902187108993530e-04</internalNodes>
          <leafValues>
            -2.3997969925403595e-01 8.2554958760738373e-02</leafValues></_>
        <_>
          <internalNodes>
            0 -1 117 -1.9995025359094143e-03</internalNodes>
          <leafValues>
            2.0818470418453217e-01 -9.7651407122612000e-02</leafValues></_>
        <_>
          <internalNodes>
            0 -1 272 1.3958940282464027e-02</internalNodes>
          <leafValues>
            -6.9094747304916382e-02 3.0373403429985046e-01</leafValues></_>
        <_>
          <internalNodes>
            0 -1 665 9.8899202421307564e-03</internalNodes>
          <leafValues>
            3.3681455999612808e-02 -6.4591151475906372e-01</leafValues></_>
        <_>
          <internalNodes>
            0 -1 832 -1.2311669706832618e-04</internalNodes>
          <leafValues>
            1.4813913404941559e-01 -1.2962613999843597e-01</leafValues></_>
        <_>
          <internalNodes>
            0 -1 666 1.0914881713688374e-03</internalNodes>
          <leafValues>
            5.5199615657329559e-02 -3.6652776598930359e-01</leafValues></_>
        <_>
          <internalNodes>
            0 -1 922 -2.9604181181639433e-03</internalNodes>
          <leafValues>
            3.0292078852653503e-01 -6.8966798484325409e-02</leafValues></_>
        <_>
          <internalNodes>
            0 -1 885 -2.9739469755440950e-04</internalNodes>
          <leafValues>
            -2.2151739895343781e-01 8.7825484573841095e-02</leafValues></_>
        <_>
          <internalNodes>
            0 -1 188 3.6071872455067933e-04</internalNodes>
          <leafValues>
            1.2103483825922012e-01 -1.5234002470970154e-01</leafValues></_>
        <_>
          <internalNodes>
            0 -1 43 2.4208848117268644e-05</internalNodes>
          <leafValues>
            -1.8154153227806091e-01 1.1289026588201523e-01</leafValues></_>
        <_>
          <internalNodes>
            0 -1 413 1.0788440704345703e-03</internalNodes>
          <leafValues>
            -8.6819238960742950e-02 2.2157675027847290e-01</leafValues></_>
        <_>
          <internalNodes>
            0 -1 598 2.0526407286524773e-02</internalNodes>
          <leafValues>
            -6.8391256034374237e-02 3.0550310015678406e-01</leafValues></_>
        <_>
          <internalNodes>
            0 -1 599 1.5372511697933078e-03</internalNodes>
          <leafValues>
            -7.9388052225112915e-02 2.3174609243869781e-01</leafValues></_>
        <_>
          <internalNodes>
            0 -1 866 7.7387478086166084e-05</internalNodes>
          <leafValues>
            -1.6914804279804230e-01 1.1796244978904724e-01</leafValues></_>
        <_>
          <internalNodes>
            0 -1 175 1.1734558211173862e-04</internalNodes>
          <leafValues>
            9.1153308749198914e-02 -2.0462654531002045e-01</leafValues></_>
        <_>
          <internalNodes>
            0 -1 754 -1.6737851547077298e-04</internalNodes>
          <leafValues>
            -2.5953078269958496e-01 7.0804908871650696e-02</leafValues></_>
        <_>
          <internalNodes>
            0 -1 753 2.7725618565455079e-04</internalNodes>
          <leafValues>
            8.4312118589878082e-02 -2.4609702825546265e-01</leafValues></_>
        <_>
          <internalNodes>
            0 -1 693 -2.2455803118646145e-03</internalNodes>
          <leafValues>
            2.8201884031295776e-01 -7.3817633092403412e-02</leafValues></_>
        <_>
          <internalNodes>
            0 -1 555 2.2440355271100998e-02</internalNodes>
          <leafValues>
            2.6062024757266045e-02 -7.2849160432815552e-01</leafValues></_>
        <_>
          <internalNodes>
            0 -1 397 -1.6331993043422699e-02</internalNodes>
          <leafValues>
            -5.9380418062210083e-01 2.4191033095121384e-02</leafValues></_>
        <_>
          <internalNodes>
            0 -1 315 2.8854185342788696e-01</internalNodes>
          <leafValues>
            -4.9668218940496445e-02 3.8670653104782104e-01</leafValues></_>
        <_>
          <internalNodes>
            0 -1 221 -5.5043298751115799e-02</internalNodes>
          <leafValues>
            2.1538166701793671e-01 -9.3799658119678497e-02</leafValues></_>
        <_>
          <internalNodes>
            0 -1 329 -8.1586251035332680e-03</internalNodes>
          <leafValues>
            2.7060908079147339e-01 -7.1625903248786926e-02</leafValues></_>
        <_>
          <internalNodes>
            0 -1 74 7.9896613955497742e-02</internalNodes>
          <leafValues>
            4.3132580816745758e-02 -4.6700128912925720e-01</leafValues></_>
        <_>
          <internalNodes>
            0 -1 447 2.3002050817012787e-02</internalNodes>
          <leafValues>
            3.2344467937946320e-02 -5.2542293071746826e-01</leafValues></_>
        <_>
          <internalNodes>
            0 -1 764 4.3433643877506256e-03</internalNodes>
          <leafValues>
            -7.6628290116786957e-02 2.2945608198642731e-01</leafValues></_>
        <_>
          <internalNodes>
            0 -1 799 -1.1633289432211313e-05</internalNodes>
          <leafValues>
            1.1572006344795227e-01 -1.6806605458259583e-01</leafValues></_>
        <_>
          <internalNodes>
            0 -1 241 6.9310532126110047e-05</internalNodes>
          <leafValues>
            1.0876920074224472e-01 -1.8883608281612396e-01</leafValues></_>
        <_>
          <internalNodes>
            0 -1 180 -6.4314901828765869e-03</internalNodes>
          <leafValues>
            2.5046828389167786e-01 -7.5933992862701416e-02</leafValues></_>
        <_>
          <internalNodes>
            0 -1 332 -2.0566978491842747e-04</internalNodes>
          <leafValues>
            -2.9384511709213257e-01 6.2359251081943512e-02</leafValues></_>
        <_>
          <internalNodes>
            0 -1 440 -3.8091291207820177e-03</internalNodes>
          <leafValues>
            2.1871988475322723e-01 -8.0870293080806732e-02</leafValues></_>
        <_>
          <internalNodes>
            0 -1 442 4.5134602114558220e-03</internalNodes>
          <leafValues>
            -9.4380944967269897e-02 2.4059194326400757e-01</leafValues></_>
        <_>
          <internalNodes>
            0 -1 369 -2.3679585865465924e-05</internalNodes>
          <leafValues>
            1.5650376677513123e-01 -1.2137269973754883e-01</leafValues></_>
        <_>
          <internalNodes>
            0 -1 460 -5.4862746037542820e-04</internalNodes>
          <leafValues>
            -2.6235938072204590e-01 7.0479631423950195e-02</leafValues></_>
        <_>
          <internalNodes>
            0 -1 710 4.5205846428871155e-02</internalNodes>
          <leafValues>
            -9.3219324946403503e-02 2.1598146855831146e-01</leafValues></_>
        <_>
          <internalNodes>
            0 -1 155 5.4149400442838669e-02</internalNodes>
          <leafValues>
            -8.2195796072483063e-02 3.1505787372589111e-01</leafValues></_></weakClassifiers></_>
    <!-- stage 13 -->
    <_>
      <maxWeakCount>69</maxWeakCount>
      <stageThreshold>-1.2181446552276611e+00</stageThreshold>
      <weakClassifiers>
        <_>
          <internalNodes>
            0 -1 792 -1.0839076340198517e-01</internalNodes>
          <leafValues>
            7.8301888704299927e-01 -2.5541383028030396e-01</leafValues></_>
        <_>
          <internalNodes>
            0 -1 515 1.0617821477353573e-02</internalNodes>
          <leafValues>
            -1.4274431765079498e-01 2.3391555249691010e-01</leafValues></_>
        <_>
          <internalNodes>
            0 -1 123 -2.9730919748544693e-02</internalNodes>
          <leafValues>
            2.3342119157314301e-01 -1.6268549859523773e-01</leafValues></_>
        <_>
          <internalNodes>
            0 -1 71 3.7270480394363403e-01</internalNodes>
          <leafValues>
            -7.7026121318340302e-02 2.6214629411697388e-01</leafValues></_>
        <_>
          <internalNodes>
            0 -1 49 -1.3029551506042480e-01</internalNodes>
          <leafValues>
            5.6018209457397461e-01 -4.3517418205738068e-02</leafValues></_>
        <_>
          <internalNodes>
            0 -1 395 -1.4128019101917744e-03</internalNodes>
          <leafValues>
            -2.9850772023200989e-01 8.0277606844902039e-02</leafValues></_>
        <_>
          <internalNodes>
            0 -1 700 5.8718651533126831e-02</internalNodes>
          <leafValues>
            6.3627585768699646e-02 -7.0845288038253784e-01</leafValues></_>
        <_>
          <internalNodes>
            0 -1 791 -2.0330891857156530e-05</internalNodes>
          <leafValues>
            1.2781023979187012e-01 -1.7359064519405365e-01</leafValues></_>
        <_>
          <internalNodes>
            0 -1 362 -2.6202778099104762e-04</internalNodes>
          <leafValues>
            -2.7548485994338989e-01 9.5517471432685852e-02</leafValues></_>
        <_>
          <internalNodes>
            0 -1 709 6.3718319870531559e-03</internalNodes>
          <leafValues>
            -9.4430446624755859e-02 3.3062657713890076e-01</leafValues></_>
        <_>
          <internalNodes>
            0 -1 214 -4.5254183933138847e-03</internalNodes>
          <leafValues>
            3.0615186691284180e-01 -7.7414400875568390e-02</leafValues></_>
        <_>
          <internalNodes>
            0 -1 144 9.7796805202960968e-03</internalNodes>
          <leafValues>
            -1.1328092217445374e-01 2.0266380906105042e-01</leafValues></_>
        <_>
          <internalNodes>
            0 -1 499 -1.3194743587519042e-05</internalNodes>
          <leafValues>
            7.6147995889186859e-02 -2.7133572101593018e-01</leafValues></_>
        <_>
          <internalNodes>
            0 -1 263 -4.8753336071968079e-02</internalNodes>
          <leafValues>
            2.4990817904472351e-01 -1.0680755972862244e-01</leafValues></_>
        <_>
          <internalNodes>
            0 -1 743 -9.9775777198374271e-04</internalNodes>
          <leafValues>
            2.5936144590377808e-01 -8.4960170090198517e-02</leafValues></_>
        <_>
          <internalNodes>
            0 -1 703 2.7540982700884342e-03</internalNodes>
          <leafValues>
            -1.2662696838378906e-01 1.7508655786514282e-01</leafValues></_>
        <_>
          <internalNodes>
            0 -1 423 5.8071978855878115e-04</internalNodes>
          <leafValues>
            6.5389931201934814e-02 -3.1143918633460999e-01</leafValues></_>
        <_>
          <internalNodes>
            0 -1 476 1.1108300089836121e-01</internalNodes>
          <leafValues>
            -1.0413847863674164e-01 2.1040952205657959e-01</leafValues></_>
        <_>
          <internalNodes>
            0 -1 470 -1.6155174374580383e-01</internalNodes>
          <leafValues>
            -3.6474078893661499e-01 4.8934452235698700e-02</leafValues></_>
        <_>
          <internalNodes>
            0 -1 407 -3.7683956325054169e-03</internalNodes>
          <leafValues>
            2.3349897563457489e-01 -8.5758998990058899e-02</leafValues></_>
        <_>
          <internalNodes>
            0 -1 89 -4.3542045168578625e-03</internalNodes>
          <leafValues>
            2.3787622153759003e-01 -8.8599354028701782e-02</leafValues></_>
        <_>
          <internalNodes>
            0 -1 697 8.3644327241927385e-04</internalNodes>
          <leafValues>
            6.7903436720371246e-02 -3.0268341302871704e-01</leafValues></_>
        <_>
          <internalNodes>
            0 -1 236 1.6604806296527386e-03</internalNodes>
          <leafValues>
            -8.3263523876667023e-02 2.6281994581222534e-01</leafValues></_>
        <_>
          <internalNodes>
            0 -1 523 -5.7668332010507584e-03</internalNodes>
          <leafValues>
            2.0008535683155060e-01 -9.4388000667095184e-02</leafValues></_>
        <_>
          <internalNodes>
            0 -1 409 3.1227119266986847e-02</internalNodes>
          <leafValues>
            -9.2696033418178558e-02 2.3832285404205322e-01</leafValues></_>
        <_>
          <internalNodes>
            0 -1 657 -2.5648423470556736e-03</internalNodes>
          <leafValues>
            -2.9575783014297485e-01 7.0915117859840393e-02</leafValues></_>
        <_>
          <internalNodes>
            0 -1 243 -3.6866453289985657e-01</internalNodes>
          <leafValues>
            5.4127657413482666e-01 -4.4258300215005875e-02</leafValues></_>
        <_>
          <internalNodes>
            0 -1 467 -1.8835138762369752e-03</internalNodes>
          <leafValues>
            -2.8813922405242920e-01 8.0042615532875061e-02</leafValues></_>
        <_>
          <internalNodes>
            0 -1 61 8.5859000682830811e-02</internalNodes>
          <leafValues>
            3.4419074654579163e-02 -4.6744468808174133e-01</leafValues></_>
        <_>
          <internalNodes>
            0 -1 871 -7.0542134344577789e-03</internalNodes>
          <leafValues>
            3.2329899072647095e-01 -6.0618855059146881e-02</leafValues></_>
        <_>
          <internalNodes>
            0 -1 900 1.3556339545175433e-03</internalNodes>
          <leafValues>
            -9.3064025044441223e-02 2.3515191674232483e-01</leafValues></_>
        <_>
          <internalNodes>
            0 -1 720 1.1379448696970940e-03</internalNodes>
          <leafValues>
            5.7907707989215851e-02 -3.2867673039436340e-01</leafValues></_>
        <_>
          <internalNodes>
            0 -1 478 -1.9745675381273031e-03</internalNodes>
          <leafValues>
            1.5697973966598511e-01 -1.2220395356416702e-01</leafValues></_>
        <_>
          <internalNodes>
            0 -1 727 1.2794955633580685e-02</internalNodes>
          <leafValues>
            2.8099086135625839e-02 -6.3634508848190308e-01</leafValues></_>
        <_>
          <internalNodes>
            0 -1 436 1.5592363197356462e-03</internalNodes>
          <leafValues>
            -1.2126014381647110e-01 1.5111139416694641e-01</leafValues></_>
        <_>
          <internalNodes>
            0 -1 247 -1.6435755242127925e-04</internalNodes>
          <leafValues>
            -2.6009732484817505e-01 7.2835192084312439e-02</leafValues></_>
        <_>
          <internalNodes>
            0 -1 42 -2.4503397071384825e-05</internalNodes>
          <leafValues>
            1.4827397465705872e-01 -1.3695687055587769e-01</leafValues></_>
        <_>
          <internalNodes>
            0 -1 312 3.9793988689780235e-03</internalNodes>
          <leafValues>
            -7.7474266290664673e-02 2.6011699438095093e-01</leafValues></_>
        <_>
          <internalNodes>
            0 -1 343 -5.7847000658512115e-02</internalNodes>
          <leafValues>
            -4.9713969230651855e-01 4.0324769914150238e-02</leafValues></_>
        <_>
          <internalNodes>
            0 -1 495 2.7048001065850258e-03</internalNodes>
          <leafValues>
            3.2016113400459290e-02 -4.8772475123405457e-01</leafValues></_>
        <_>
          <internalNodes>
            0 -1 9 -9.9252047948539257e-04</internalNodes>
          <leafValues>
            1.3806486129760742e-01 -1.3717146217823029e-01</leafValues></_>
        <_>
          <internalNodes>
            0 -1 216 5.5129583925008774e-02</internalNodes>
          <leafValues>
            -9.1957248747348785e-02 2.3357038199901581e-01</leafValues></_>
        <_>
          <internalNodes>
            0 -1 363 2.7367897564545274e-04</internalNodes>
          <leafValues>
            9.4283625483512878e-02 -2.3768076300621033e-01</leafValues></_>
        <_>
          <internalNodes>
            0 -1 322 1.9402594771236181e-03</internalNodes>
          <leafValues>
            -7.9971387982368469e-02 2.3271957039833069e-01</leafValues></_>
        <_>
          <internalNodes>
            0 -1 129 -6.3215261325240135e-03</internalNodes>
          <leafValues>
            1.8584011495113373e-01 -1.0826650261878967e-01</leafValues></_>
        <_>
          <internalNodes>
            0 -1 321 -1.6083760419860482e-04</internalNodes>
          <leafValues>
            -1.7967265844345093e-01 1.1462970823049545e-01</leafValues></_>
        <_>
          <internalNodes>
            0 -1 425 -3.8304999470710754e-02</internalNodes>
          <leafValues>
            1.9823768734931946e-01 -1.0185614228248596e-01</leafValues></_>
        <_>
          <internalNodes>
            0 -1 782 -3.4009577939286828e-04</internalNodes>
          <leafValues>
            -2.2627028822898865e-01 8.6562193930149078e-02</leafValues></_>
        <_>
          <internalNodes>
            0 -1 139 -9.4771988689899445e-02</internalNodes>
          <leafValues>
            -6.4949923753738403e-01 2.3828320205211639e-02</leafValues></_>
        <_>
          <internalNodes>
            0 -1 11 -1.0573127838142682e-05</internalNodes>
          <leafValues>
            1.0421136766672134e-01 -1.6428384184837341e-01</leafValues></_>
        <_>
          <internalNodes>
            0 -1 17 -5.6583021068945527e-04</internalNodes>
          <leafValues>
            -1.8880043923854828e-01 1.0096947103738785e-01</leafValues></_>
        <_>
          <internalNodes>
            0 -1 626 -2.6347420644015074e-03</internalNodes>
          <leafValues>
            2.0318356156349182e-01 -9.1366380453109741e-02</leafValues></_>
        <_>
          <internalNodes>
            0 -1 250 4.1565132141113281e-01</internalNodes>
          <leafValues>
            -6.0541037470102310e-02 3.1889620423316956e-01</leafValues></_>
        <_>
          <internalNodes>
            0 -1 98 -7.8285895287990570e-03</internalNodes>
          <leafValues>
            2.2647045552730560e-01 -1.0561533272266388e-01</leafValues></_>
        <_>
          <internalNodes>
            0 -1 876 -1.7192265950143337e-03</internalNodes>
          <leafValues>
            3.5572811961174011e-01 -4.7201320528984070e-02</leafValues></_>
        <_>
          <internalNodes>
            0 -1 811 6.3140667043626308e-04</internalNodes>
          <leafValues>
            7.6648719608783722e-02 -2.3374310135841370e-01</leafValues></_>
        <_>
          <internalNodes>
            0 -1 886 -3.8199895061552525e-04</internalNodes>
          <leafValues>
            -3.3182767033576965e-01 5.4941743612289429e-02</leafValues></_>
        <_>
          <internalNodes>
            0 -1 211 2.1863703295821324e-05</internalNodes>
          <leafValues>
            -1.2761910259723663e-01 1.3585259020328522e-01</leafValues></_>
        <_>
          <internalNodes>
            0 -1 114 7.7253155177459121e-04</internalNodes>
          <leafValues>
            -6.4789488911628723e-02 2.6951563358306885e-01</leafValues></_>
        <_>
          <internalNodes>
            0 -1 614 5.5045187473297119e-02</internalNodes>
          <leafValues>
            -5.1727600395679474e-02 3.4536907076835632e-01</leafValues></_>
        <_>
          <internalNodes>
            0 -1 623 -2.6976293884217739e-03</internalNodes>
          <leafValues>
            -6.8404519557952881e-01 2.8188508003950119e-02</leafValues></_>
        <_>
          <internalNodes>
            0 -1 93 -4.4346268987283111e-04</internalNodes>
          <leafValues>
            -2.5249156355857849e-01 5.9602584689855576e-02</leafValues></_>
        <_>
          <internalNodes>
            0 -1 87 5.2751146722584963e-04</internalNodes>
          <leafValues>
            1.4608682692050934e-01 -1.3637021183967590e-01</leafValues></_>
        <_>
          <internalNodes>
            0 -1 212 -2.1795099601149559e-03</internalNodes>
          <leafValues>
            2.8787291049957275e-01 -6.3896976411342621e-02</leafValues></_>
        <_>
          <internalNodes>
            0 -1 92 1.2741645332425833e-03</internalNodes>
          <leafValues>
            -5.9543062001466751e-02 2.9872632026672363e-01</leafValues></_>
        <_>
          <internalNodes>
            0 -1 414 -1.4470349997282028e-02</internalNodes>
          <leafValues>
            -2.9571625590324402e-01 5.7249557226896286e-02</leafValues></_>
        <_>
          <internalNodes>
            0 -1 639 -4.8369457945227623e-03</internalNodes>
          <leafValues>
            1.8314869701862335e-01 -1.0308195650577545e-01</leafValues></_>
        <_>
          <internalNodes>
            0 -1 304 -4.3265679851174355e-03</internalNodes>
          <leafValues>
            3.2241749763488770e-01 -4.8969183117151260e-02</leafValues></_>
        <_>
          <internalNodes>
            0 -1 387 -2.2996533516561612e-05</internalNodes>
          <leafValues>
            1.2272189557552338e-01 -1.4685387909412384e-01</leafValues></_></weakClassifiers></_>
    <!-- stage 14 -->
    <_>
      <maxWeakCount>76</maxWeakCount>
      <stageThreshold>-1.1822527647018433e+00</stageThreshold>
      <weakClassifiers>
        <_>
          <internalNodes>
            0 -1 592 1.6796167939901352e-02</internalNodes>
          <leafValues>
            -2.6544901728630066e-01 4.8958334326744080e-01</leafValues></_>
        <_>
          <internalNodes>
            0 -1 154 -3.0359700322151184e-02</internalNodes>
          <leafValues>
            2.3388625681400299e-01 -1.3643363118171692e-01</leafValues></_>
        <_>
          <internalNodes>
            0 -1 584 2.1401694975793362e-03</internalNodes>
          <leafValues>
            9.1206431388854980e-02 -3.1976047158241272e-01</leafValues></_>
        <_>
          <internalNodes>
            0 -1 548 1.8537897616624832e-02</internalNodes>
          <leafValues>
            -3.0310491099953651e-02 4.9269837141036987e-01</leafValues></_>
        <_>
          <internalNodes>
